_UNK 0.1636601092909063 0.19394096379950032 0.0013184919026291153 -0.18162018829196092 -0.11695196160776233 -0.1397148120458937 -0.18147654284495163 -0.14784211053470553 -0.1387685972023452 0.0943613843100573 0.043513148613525676 0.13483951030351304 -0.18622007674177604 -0.07242265844633594 0.14398880881631593 -0.05506169288167284 0.04010168664558805 0.06375372007083485 -0.12249482750843177 -0.018040715064938095 -0.14559777972803506 -0.1827290345665321 -0.17685247480736144 -0.05191868378612957 0.12407494197537405 -0.12609532664089795 0.03880644639343339 0.02353771210636635 -0.17444319324067675 -0.12473690134112775 0.07585212800611574 -0.23990092026963056 -0.04122463219609784 -0.24213428468531134 -0.2390061408473521 -0.028763554127501534 0.24892020224389572 0.19496266060701545 -0.0013907448784034604 -0.11791488506481518 0.14820809993262407 -0.15101709770676908 -0.04676054602063445 -0.038484207950253646 -0.047777963110236965 0.061420119089541425 -0.10492517679128271 -0.013998946700081116 0.02037236160897371 0.19800691327767134 0.1214943271999333 0.22391284385142457 -0.09061335308976992 -0.002811514988410979 -0.0920241632997707 -0.09532409244952811 -0.05503461602417353 -0.01151574999394439 -0.12405213312358249 -0.03539952851407868 0.08398753360456851 0.02230790108047287 0.012473397389255958 -0.0516649354538391 0.2135478015939814 -0.09510228391981695 -0.14919544455792488 -0.0878363141070127 0.06871533062860097 -0.015578076351674242 -0.06905595011805465 -0.12551775166587892 -0.22561289901118692 0.09105525099995365 0.16238061996408548 0.10791463008649504 -0.008513824483976862 0.1958869961269602 -0.247484287415084 -0.08824195112222288 0.1569214673220174 -0.21253124305194016 -0.12720608236401065 0.07353243328099307 -0.08450688582271998 -0.17875428806791382 -0.015696399015301676 -0.22256051107843305 -0.14111853070649233 0.11648120989505428 0.013350541318171816 0.05446711888861916 -0.013093419981184129 -0.21854842426971738 0.05270505890364857 -0.13257780155201432 -0.09679188894016105 0.05628875317527271 -0.1099731940653359 0.07662788788038305 -0.01349486672599598 -0.05288221081678979 -0.14306116622936066 -0.026952695823744988 0.04913508174816428 -0.05682416382476435 0.17935109283501321 0.12303070315537784 -0.06822781389885041 -0.169216366427137 -0.03726123561996969 -0.16190764366832544 -0.10625340463909061 0.1559402967404369 0.2416148339727553 -0.08307656980971201 0.20814174076904413 0.22601743726331297 -0.003524913439245436 0.08320550132486398 -0.10673483342111323 -0.17031211959963166 -0.046114565640306915 0.019460962245869295 -0.1047589568457426 0.15930140431669365 0.1824786035616045 0.05479347053544953 0.15579820739265915 0.07832217364746591 0.132213364763346 -0.22326151385554227 0.019941824350241444 0.07731206849819161 0.051788274687152025 0.20289148475432844 0.03661136283338595 -0.22664039177042145 -0.04527151341306801 0.053534468149093906 0.23895497827145407 -0.06250088728818681 0.024039703493429987 -0.1319017728948803 0.22946923600961727 -0.21481340470214744 -0.19957644887192805 0.05126738512308965 0.028109836638203767 -0.20637313334423513 0.19514951614167647 -0.2453976611792288 -0.031413221379609335 -0.22545944051704747 0.04534991382163461 -0.16685835700865237 -0.11098673682029464 -0.023575497296221493 0.16557615346262727 0.2394271413178437 -0.09234992350327759 -0.16969505648661398 -0.20742837812216325 -0.21889342637740733 -0.030644545187831718 0.21078367072386944 0.2066711438479648 -0.22329584692164783 -0.09625581957827467 -0.14614169236024532 0.14056986028447616 0.09337910642724845 -0.22844745754987877 -0.1290161450424025 -0.0836901178398694 0.21621777879466708 -0.16273158149935907 0.11577390818930772 -0.16698733666636578 -0.11378496556604328 0.17030650203143105 0.16665786532052318 0.08419822626297696 0.0781817904799666 0.19175364124242972 0.23317760923503822 0.17585156592193973 -0.05606189738172268 -0.20054621823604796 0.11174310889110584 -0.14579144740616168 0.11789938788446619 0.18831097970987776 0.042336474196854657 0.23614127457055772 0.028234608472545553 -0.1313255162798429 0.1668358403519135 -0.1641463861294622 -0.07460191464319205
_PAD 0.0 0.0 0.0 0.0 0.0 0.0 0.0 0.0 0.0 0.0 0.0 0.0 0.0 0.0 0.0 0.0 0.0 0.0 0.0 0.0 0.0 0.0 0.0 0.0 0.0 0.0 0.0 0.0 0.0 0.0 0.0 0.0 0.0 0.0 0.0 0.0 0.0 0.0 0.0 0.0 0.0 0.0 0.0 0.0 0.0 0.0 0.0 0.0 0.0 0.0 0.0 0.0 0.0 0.0 0.0 0.0 0.0 0.0 0.0 0.0 0.0 0.0 0.0 0.0 0.0 0.0 0.0 0.0 0.0 0.0 0.0 0.0 0.0 0.0 0.0 0.0 0.0 0.0 0.0 0.0 0.0 0.0 0.0 0.0 0.0 0.0 0.0 0.0 0.0 0.0 0.0 0.0 0.0 0.0 0.0 0.0 0.0 0.0 0.0 0.0 0.0 0.0 0.0 0.0 0.0 0.0 0.0 0.0 0.0 0.0 0.0 0.0 0.0 0.0 0.0 0.0 0.0 0.0 0.0 0.0 0.0 0.0 0.0 0.0 0.0 0.0 0.0 0.0 0.0 0.0 0.0 0.0 0.0 0.0 0.0 0.0 0.0 0.0 0.0 0.0 0.0 0.0 0.0 0.0 0.0 0.0 0.0 0.0 0.0 0.0 0.0 0.0 0.0 0.0 0.0 0.0 0.0 0.0 0.0 0.0 0.0 0.0 0.0 0.0 0.0 0.0 0.0 0.0 0.0 0.0 0.0 0.0 0.0 0.0 0.0 0.0 0.0 0.0 0.0 0.0 0.0 0.0 0.0 0.0 0.0 0.0 0.0 0.0 0.0 0.0 0.0 0.0 0.0 0.0 0.0 0.0 0.0 0.0 0.0 0.0
RR 0.3133922 -0.066762194 0.20604035 -0.48688108 0.009279793 -0.09763374 -0.2488306 0.08526846 0.36335304 0.292584 -0.30176073 0.2974825 -0.43564153 0.17248277 -0.0077647613 0.06350711 -0.21526115 0.23313366 -0.1355781 -0.107298344 -0.4354512 -0.18205108 0.5005731 0.43379706 0.12081144 0.09589071 0.06555466 -0.18058765 0.18113239 0.022942206 -0.05432123 0.05294232 -0.22256075 -0.23261265 -0.25034004 0.25523886 0.2974297 -0.5580643 -0.13394038 -0.09928749 -0.007725499 -0.075846404 0.23403871 0.11686497 0.027012847 -0.19894607 -0.07566238 -0.123654775 -0.19101162 -0.42245245 0.28292334 -0.06254984 0.08124555 0.09928339 0.531992 -0.30570617 0.1778716 0.2585554 0.06123285 0.10097583 0.42380887 0.0495981 0.053867858 0.09946756 -0.016551256 0.2914938 -0.06758991 0.22431783 0.12897556 0.114031546 0.2968824 0.39357442 0.07949953 -0.40873912 -0.04928455 0.10404163 -0.38766629 -0.09128511 -0.13708232 -0.06943031 -0.29322028 -0.5209628 -0.41330332 -0.03377664 -0.18139438 -0.023030937 0.17936312 -0.16988546 0.05888958 0.09649991 -0.13199896 -0.007008284 -0.14709744 -0.09562552 -0.21817307 0.33313882 0.041105635 0.12714402 0.5891924 0.17910367 0.31774145 0.15717515 0.09100888 0.049400944 0.23157454 0.23010899 0.19166632 0.14615437 0.23595957 -0.48550692 0.19387825 -0.29816478 -0.1526754 0.16570637 -0.003865188 0.013244057 -0.09687956 -0.06689837 0.19610922 -0.29815575 -0.18310148 0.18671219 -0.4273069 0.35054117 0.2814632 0.07887624 0.058110658 -0.1533949 -0.014165769 -0.22636907 -0.2760848 -0.31079024 0.28965992 -0.045242757 -0.20116478 0.1776708 0.12542164 -0.2045163 0.14658608 0.20174497 -0.38961583 0.28650787 -0.50663716 -0.45601678 -0.06625637 0.38048434 -0.35391057 0.27104506 0.19565971 -0.008213945 -0.33435774 -0.09729609 0.1087554 -0.083847225 0.3399096 0.22028379 0.15137191 -0.12411639 0.1265363 -0.083220355 0.055113755 0.119818 -0.34950146 0.29735747 0.4340218 0.19510916 -0.20221381 0.13176018 0.18452235 -0.17695491 0.5238198 -0.10741025 0.2503159 0.040571097 -0.49463004 0.14714573 0.2509674 0.16409989 0.039550968 -0.15334244 -0.28425393 0.56208843 0.30170184 -0.2692101 0.13076012 -0.05718951 0.4739558 -0.4053635 -0.11562882 0.4863143 0.28363872 0.35331416 0.384209 0.48663744 -0.07087778 -0.088242434 0.20677848 0.07613215 -0.20650643 0.13570108
115 -0.12830588 0.13118944 -0.117541425 -0.2627473 -0.22480366 -0.0444223 -0.017335953 -0.016213689 0.10675848 -0.19076048 -0.024877442 0.19913688 -0.22177936 -0.2494976 0.060897946 -0.012540269 -0.007743357 -0.1136123 -0.21722949 -0.00839968 -0.20026335 -0.0012483794 -0.1359145 0.07964657 -0.19878098 -0.09035811 0.2982124 0.1463503 -0.031196682 0.280409 0.0576925 -0.0078093503 0.2224768 0.17961247 -0.07034432 0.2552081 0.16672222 0.1529844 0.13389271 -0.26847526 0.0007405933 0.0023105284 0.47903255 -0.18773319 -0.113254234 -0.26191542 -0.0746792 0.0487519 0.096201025 -0.06691697 0.21128796 0.15488607 0.21867485 0.10607296 -0.1585491 -0.213168 -0.094427794 -0.03984885 -0.024758345 -0.2738927 0.12311085 0.25164115 0.12601584 -0.28206727 0.044481184 0.21663763 -0.12292464 0.322543 -0.23567843 0.09480573 -0.3613772 0.029921176 0.22493161 -0.059373528 0.222087 0.03157813 -0.40236446 -0.18634774 -0.119600795 0.10172147 0.018940441 -0.14816536 -0.16252787 -0.15728532 -0.13046607 0.11812045 0.1543712 0.10220407 -0.014312223 -0.20078307 0.09068315 0.24485902 -0.03200502 -0.17415908 0.0502727 -0.1150575 -0.12807351 -0.007997374 0.22304015 0.10387724 -0.02946637 0.30054027 -0.2318146 0.23882344 0.18186525 0.15558487 -0.011081301 -0.05746827 0.16727518 0.020446235 -0.08863885 -0.37230211 -0.26162258 0.2607862 0.03121217 0.12673333 0.1991862 0.11627569 0.17231455 0.15407234 0.030750364 -0.1962054 -0.19967683 -0.14112793 -0.14372788 -0.18427621 -0.34040248 0.19312885 0.13434626 0.12710948 -0.09045496 -0.07903935 0.25500286 -0.0907633 -0.10596175 -0.01524876 0.012499694 -0.07239027 -0.02733967 -0.0057035643 0.14714454 0.15769936 -0.32487243 0.049274206 -0.21714745 0.2186432 0.02288134 0.44123316 -0.09594349 -0.13096018 0.20661743 0.02723219 -0.25946602 -0.07403803 -0.15805133 0.19368893 -0.098490626 -0.32195473 -0.07934557 0.18932338 0.16006783 0.0887006 -0.039135788 0.18447252 0.20882012 -0.09890167 -0.07226761 0.007585864 0.19451521 -0.079023294 0.073581584 0.1693316 0.16545974 -0.03617514 -0.10967098 0.20237757 -0.3888089 -0.049793128 -0.10207419 -0.04504509 -0.19368662 0.07078264 0.18935244 0.19000457 -0.00047036848 0.054923493 -0.10088821 -0.30833265 0.38123348 0.54674125 0.042827986 0.08854301 -0.14633049 0.16462697 0.009498746 0.023168933 0.26033008 -0.08112856 -0.08773129 -0.30520102
/ -0.19557846 0.14199553 0.018465137 -0.11361682 -0.40112182 -0.08137624 0.055689815 -0.1135424 -0.12069702 -0.07483463 -0.027157212 0.09240831 0.40123737 -0.08736841 -0.11483081 -0.27372807 -0.03508679 -0.052777592 0.004637627 0.34085318 -0.16792122 0.3754818 0.067427896 0.37033415 -0.015331529 0.08769696 -0.14293571 0.2308861 0.20177178 0.062110648 0.21705312 0.10368071 0.108514085 -0.09024178 0.007505587 0.24008982 0.25148645 -0.023930553 -0.119141094 0.15961921 -0.6594138 0.07767234 0.13189647 -0.03731613 -0.071618035 -0.019462507 0.16635117 -0.10021395 -0.28058112 -0.010398077 0.017883161 0.21856791 0.026651869 -0.011892354 0.033806566 -0.08265806 -0.0027458624 0.114355996 -0.020322358 -0.087582365 -0.31267515 0.4470652 -0.17075376 -0.18975851 -0.122784086 0.55579144 0.048779774 0.51994246 -0.13351424 0.20915069 -0.028910626 0.071448505 -0.26680392 -0.19033961 0.09306277 -0.13512348 0.03967963 -0.022670237 -0.19074959 0.11337333 -0.0933583 0.028275225 -0.2085667 -0.06546718 0.017279234 0.22619233 0.22025996 -0.39135173 0.07201188 -0.123166546 -0.013093199 0.22592968 -0.43312457 -0.46677315 0.28871456 0.09534021 0.23444536 -0.056600127 -0.09700586 0.08476534 0.12893578 -0.0944004 0.0817195 -0.013588794 -0.14869983 -0.0074762674 0.23336402 0.043681808 0.02938099 -0.27155814 0.047627635 -0.023992533 -0.24472342 -0.10952184 -0.07653634 -0.011902129 0.26538405 -0.15039441 -0.035491712 -0.020266322 -0.11275017 -0.38925174 -0.22548926 -0.031756144 -0.26940018 0.20692247 0.1472137 0.26101044 -0.012574541 -0.04630304 0.023744749 -0.08824993 -0.06591508 0.12707295 -0.0276475 0.14271978 0.45364177 -0.12218962 0.19127364 -0.07204985 -0.098803125 0.24034578 0.05197152 -0.17557406 -0.3330134 0.45689029 0.110993885 0.29800028 0.108469464 0.02565986 -0.20365411 -0.00981941 -0.03939362 0.24192144 -0.046576884 -0.07577397 -0.43648148 -0.45119914 -0.20003653 0.3873388 0.13974437 -0.11640307 0.20011404 0.104019225 0.3460949 -0.11609741 0.009466606 -0.12937365 -0.16211039 0.19130506 0.010546181 0.20149906 -0.06344224 -0.015432799 -0.29997134 -0.38897407 0.17440706 -0.2740826 0.100343935 -0.23681952 0.021741288 0.2649727 -0.0045939083 -0.015454027 0.11160575 0.07011025 0.15948474 -0.24581914 0.11388404 0.18014458 0.26688844 0.21474065 0.05204473 -0.05860246 0.034046885 0.108778134 -0.017516606 0.032301173 -0.28948116 0.091411784
70 -0.24170837 0.23085657 -0.017301193 -0.049843904 -0.11308692 0.0348865 0.037389956 -0.16831629 0.083179645 -0.25979435 0.03740037 0.09370013 -0.31485254 -0.103805974 0.061060585 -0.10206115 -0.014782623 -0.018301578 -0.16694753 -0.11611737 0.002459177 0.086807705 0.010887067 -0.07856411 0.045451947 0.07308098 0.2373323 0.06559718 -0.011431968 0.067761675 0.07775477 0.17786956 0.14754656 0.10019166 -0.12897784 0.0927752 0.19406307 -0.111277424 0.076218456 -0.17049249 -0.09336818 0.003415882 0.42488354 0.20497522 0.07626687 -0.17720002 -0.1296877 0.0054148454 0.03448326 0.2611595 0.021699823 0.28810316 0.23466425 -0.18880452 -0.19532306 -0.11268536 0.016369427 0.07688857 0.05928697 -0.2019367 0.071418256 0.44213843 -0.0076267305 -0.11782667 -0.0050183646 0.11275241 -0.2766271 0.12894766 -0.1763335 0.13721755 -0.08859473 0.052275266 0.038570784 -0.16717233 0.28173727 0.08779185 -0.39218614 0.14807361 -0.4133383 0.10785164 0.084944814 -0.27159825 -0.22615506 0.066976815 -0.18873098 -0.19620371 0.1717623 -0.035920385 0.26306185 -0.30092767 -0.09045079 0.33775353 -0.2153382 -0.16024627 -0.26595283 -0.11901455 0.061348394 0.15338191 0.44806397 -0.13804433 0.07713024 0.12549357 -0.16345598 0.14846535 -0.0154357655 0.059455592 0.0029921387 -0.07410608 -0.19339323 -0.055790864 -0.008584423 -0.17274767 -0.17616506 0.023046624 -0.07243747 0.24973184 0.14498584 0.11263342 0.025383735 -0.08286272 0.0394715 -0.016883774 0.04449865 -0.0951459 -0.16884463 -0.04140301 -0.19315776 -0.0017489938 0.08264416 0.024503283 -0.20711063 0.025227359 0.13136439 -0.011721533 -0.3513317 0.26357862 0.04076405 -0.14541116 0.013559341 -0.07307207 0.1252184 0.07129405 -0.06935623 0.019969717 -0.14260487 0.1329991 0.043016173 0.24685188 -0.070349336 -0.3206192 0.037276864 -0.10128341 -0.32652047 0.087362066 -0.15906087 0.11660172 -0.019330353 -0.24573988 -0.030307971 -0.017249415 0.15454595 -0.01102674 0.04565815 0.14352472 0.14741641 -0.40957543 -0.0044103567 -0.06385872 0.08175405 -0.0008450559 -0.061095253 0.4031891 0.23199876 0.0031421497 -0.19729273 0.036687028 -0.38258016 -0.15103287 0.00975902 0.25640106 0.090650715 0.020841612 0.16540505 0.12932576 0.07368911 0.09722579 -0.02865848 -0.19616099 0.20779906 0.41240138 0.20725027 0.18376146 0.06084624 0.12314045 0.13626479 0.11897097 0.20807092 -0.028910344 -0.063582614 -0.00956207
, 0.14779897 0.044694286 -0.10518212 0.067468025 0.09890765 0.016050367 -0.010223032 -0.0058323466 0.06445708 -0.1672221 -0.1666722 -0.115691535 -0.09547418 -0.04118862 -0.2059881 -0.00907135 0.08515125 0.037774827 -0.02889819 0.09508437 -0.061045337 0.073003314 0.00050968723 0.05011556 -0.16887292 -0.02140533 0.031603847 -0.09589048 0.14183898 0.18115395 0.1323746 -0.018567238 -0.0088336095 0.11450214 -0.0410829 0.1490229 0.16520329 0.01969913 -0.04868255 0.07587683 -0.07862434 0.0627479 0.14157258 -0.0075953165 0.0032951431 -0.1401651 -0.062444206 -0.0064031314 0.022985758 -0.104242206 0.17077936 0.121162504 -0.040084884 0.10963722 -0.16920754 -0.15922534 -0.014265639 -0.09292991 -0.1056442 -0.113145806 0.014796635 0.11881908 -0.06770321 -0.19740838 -0.058550876 0.09916451 -0.085855655 0.13776833 -0.09044372 0.11439372 -0.085231364 0.07173169 -0.12738451 -0.09511009 0.07512805 -0.06435496 -0.12350688 0.04918019 -0.11256419 0.13229488 0.033280276 -0.07796259 -0.10361032 -0.05804811 -0.047171056 0.011469151 0.10733708 0.016347874 0.04238731 -0.08620052 0.15265979 0.16866198 -0.22743832 -0.25223985 0.0046761087 0.09311597 0.02235405 0.009853568 0.29552487 0.0071083345 0.10089214 0.0954265 -0.12135893 -0.008333309 0.046798434 -0.03526796 -0.024017822 -0.16368388 0.26540536 0.043200254 0.18687652 -0.21316451 -0.1398549 0.13931654 -0.13546489 0.06981232 0.19173652 -0.16717868 0.24389008 -0.023958871 0.07170467 0.07877966 -0.0815986 -0.012795714 0.055408318 0.034670398 -0.014598338 -0.0975299 0.010944121 0.10067926 0.017376054 -0.13826309 0.011984899 0.055543825 -0.20507082 0.09796077 0.06364097 -0.20137799 -0.09560892 -0.0063913832 -0.022764647 0.25669006 -0.137354 0.13708067 -0.09724123 0.2826703 -0.07714978 0.3537303 -0.09707644 0.04572799 -0.0783688 -0.10562094 -0.06283165 0.019948173 -0.11916495 0.07028216 -0.10431826 -0.21533126 -0.12255775 0.09354413 0.06962227 -0.14009944 0.08220436 0.07849355 0.11305004 -0.005212027 0.0032098065 -0.08447285 0.015746398 -0.09557246 0.0076743406 0.075151056 0.13459998 0.06997005 0.034015268 -0.026590863 0.069534905 -0.042559113 -0.021752918 -0.075627826 0.1023952 0.046145342 0.06171499 -0.04266562 0.018640164 0.10046289 0.00091211894 -0.13170695 0.06340161 -0.07496403 0.22618489 0.07940843 0.16163298 0.033080854 -0.17566371 -0.03592223 -0.051931057 0.14544195 -0.20034848 0.13622296
Puls -0.329887 -0.41772446 -0.06297614 -0.116052225 -0.116425455 0.0072780265 0.07020476 -0.049906366 -0.06922001 0.03741148 0.013336784 -0.04890212 -0.012204869 0.13044031 -0.07051605 -0.22565523 0.20729025 -0.024835888 0.025666533 0.073263906 0.040095925 0.040864464 -0.04636865 0.03435155 0.07416736 -0.21234065 0.032445703 0.045164265 0.05381168 0.069293045 0.22023526 -0.19345716 -0.048358623 -0.04753835 -0.11389469 0.11187916 0.20727645 0.078589715 0.15236083 0.004104636 -0.23421656 -0.06607195 0.07849236 -0.02673098 0.030776711 -0.22154783 0.046881337 -0.124893054 -0.0817707 0.0076565435 -0.049960945 0.06291064 0.17241281 0.007166248 0.116994046 -0.11844475 0.049837872 -0.017900903 -0.090093136 -0.059328407 0.046212185 -0.017179912 -0.082134604 -0.15813726 -0.060912754 0.4499207 -0.05925734 0.1755127 -0.13189302 0.27288562 -0.02960311 0.0449419 0.03943302 -0.022482777 0.12677938 -0.07222686 -0.04584018 -0.07700986 -0.07055267 0.13115051 -0.0052354094 0.038645763 -0.03871135 0.057088137 0.023517685 -0.14451155 0.069860525 -0.0771612 0.01807737 -0.16014422 0.1506377 0.24504542 -0.22007523 -0.14593196 0.23735867 -0.022098476 -0.017496523 0.10323892 0.2396644 -0.09632841 0.1100952 -0.15619746 0.04218141 0.097658135 0.17982048 -0.086385466 -0.12585737 -0.18384968 0.018647369 0.021333981 0.048592836 -0.22094463 0.10891 0.14716 -0.35347047 0.047001824 0.0866356 -0.36655957 0.10597503 -0.1629894 -0.0068611903 0.09318701 0.021178858 0.0078095007 0.36775607 0.11841169 0.0010916473 -0.0042979117 -0.2034853 -0.04884245 -0.27781138 -0.18974759 0.15406409 0.054974686 -0.22007015 0.24197449 0.21406306 -0.0863129 0.11904571 0.0870334 -0.02156305 -0.19474696 0.058019593 0.1828843 -0.1616723 0.2923009 -0.13877824 0.05497447 -0.02837014 -0.18672472 -0.2944199 -0.18071818 0.071097605 0.22292468 -0.33472282 0.16146816 -0.08963499 -0.053601734 -0.06944294 0.103559464 -0.19229501 -0.20643725 0.016900629 -0.048082523 -0.05188574 -0.012386991 -0.14235108 0.13442667 -0.059282653 -0.3304716 0.057521697 0.0006590717 -0.021512432 -0.016678426 -0.077784315 0.24539647 -0.09261415 0.10765432 0.117898166 -0.2785517 0.13732134 0.070695125 0.3294499 0.03393267 -0.10627116 0.015510652 0.17144352 -0.35345915 -0.033128813 0.28439376 0.10998704 -0.05513493 0.09637572 -0.19697915 0.00799895 -0.06436977 0.16252603 0.12560716 -0.22218941 -0.017475303
88 -0.14020485 0.2042592 -0.17973636 -0.07809698 -0.122990206 -0.13267843 0.28702903 0.054752633 0.10362905 -0.12806912 0.12195331 0.04602305 -0.47513098 -0.20214503 0.06263501 -0.11203866 0.07758034 -0.047643583 -0.3525558 -0.05857843 -0.006759621 0.011622523 -0.2128691 0.051893737 -0.14462839 0.16835767 0.5151473 0.06831282 -0.038444392 0.12637207 0.05308133 0.2759349 0.19541746 0.15543002 0.0333949 0.07354936 0.06568551 -0.13882992 0.026942907 0.021354487 -0.12042923 0.04047312 0.4913191 -0.011680535 0.04749783 -0.35888302 -0.06279211 -0.14771335 -0.14537688 -0.06442425 0.23710297 0.29373616 0.21498863 -0.06737038 -0.2485792 -0.010794553 0.106351145 -0.11153142 -0.058093518 -0.290604 -0.03507348 0.3077731 0.043747466 -0.20138542 -0.093271025 0.080920085 -0.23958912 0.16627423 -0.16893391 -0.05426203 -0.14847843 0.04199438 0.17354952 -0.29395142 0.19563471 0.18137844 -0.41207713 0.035409357 -0.341428 0.06683638 0.08397322 -0.15095395 -0.248358 -0.064427376 -0.31467402 -0.05059444 0.06793327 0.17856516 0.16597 -0.1786814 -0.22431572 0.107639745 0.010674468 -0.30975658 -0.21647854 -0.11236746 -0.122300535 0.14770733 0.41082716 -0.0025587748 0.08358705 0.20895311 -0.104276076 0.18555054 0.10055837 -0.093682 -0.14750585 -0.00037619742 -0.13848867 -0.2023817 -0.03567081 -0.37400123 -0.18750851 0.14139593 -0.05732751 0.23435657 -0.019932156 0.030518053 0.33469206 0.006575759 -0.08736585 -0.20849605 -0.0054913824 0.021950701 -0.105331555 -0.01995399 -0.26792184 0.08646074 0.06363784 0.26949146 0.003913425 -0.13893677 0.18453938 0.011482854 -0.3183462 0.3584485 0.0441922 -0.1718273 -0.03913001 -0.09798566 -0.00963832 0.16716288 -0.25944144 0.034770202 -0.2599857 0.037992526 0.11490349 0.3127074 -0.07088691 -0.08889577 0.05257651 -0.14434442 -0.27918503 0.11058025 -0.064043015 0.14555304 -0.022177847 -0.22398186 -0.19272263 -0.06530475 0.21990724 -0.05297801 0.03039768 0.09965017 0.3010063 -0.18973906 -0.100042425 -0.091973886 0.27507123 -0.035174873 0.2864623 0.04693859 0.1937117 0.08735557 -0.42675224 -0.058041938 -0.33596465 -0.13535778 0.09504468 -0.02417532 -0.13201185 0.050929338 0.11344615 -0.09209821 0.059718322 0.23924197 -0.17852484 -0.08364481 0.43591022 0.3645007 0.12936081 0.3756642 -0.23245524 0.069407195 0.044749454 0.1842502 0.21920006 0.047633734 -0.04500324 0.115071535
- 0.096396685 -0.08674112 0.03688695 -0.10454422 0.11349947 -0.034855094 0.011595008 0.17353603 -0.06616106 -0.050173134 0.1561585 -0.20543216 0.08038662 0.03961988 -0.04075682 -0.09639293 -0.17769821 -0.065344706 -0.06256841 0.2093255 0.11630441 0.38976273 -0.11364088 0.081075355 -0.06820417 -0.00795704 -0.04147543 0.09603746 0.16815506 -0.09845355 0.073660456 0.020111324 -0.115379795 0.13674167 -0.11868716 0.08733161 0.30230173 0.15948996 0.05236234 0.006891988 -0.4404092 0.04876685 0.12092933 0.014894885 0.027296131 -0.0849772 0.042585853 -0.26011476 -0.12727472 0.00046873893 -0.046931718 0.31254026 -0.084428385 -0.018871315 0.053930286 -0.16090168 0.037042998 0.019218957 0.010967716 -0.22339617 -0.14205424 0.27035335 -0.28259778 -0.28257847 -0.058316827 0.5695712 -0.11019849 0.3652406 -0.02221214 -0.09733106 -0.07229953 0.10530435 -0.30266467 -0.10074736 0.12447503 0.00072928495 -0.2279323 -0.1536029 -0.2289587 0.2858699 0.13076653 -0.119526364 -0.18881625 -0.008413788 0.057081994 0.23813894 0.09556659 -0.2563368 -0.15168889 0.15984969 0.02271264 0.24832413 -0.36794537 -0.3675851 0.014204082 0.08907546 -0.007102372 -0.07826049 -0.13173711 0.16769178 -0.09983302 0.02716512 -0.010376418 0.048011582 -0.110914856 0.043976504 0.2625266 0.031797376 0.2887513 -0.0566229 -0.04975994 -0.10091615 -0.26662853 0.2605374 -0.21085899 0.089586005 0.29355276 -0.1927419 -0.12966923 0.0705396 0.106609076 0.118589535 0.008129125 0.03440846 -0.025326593 0.24604064 0.14116544 -0.053057253 -0.056236085 0.15054666 0.036504183 -0.045949277 -0.04719117 -0.07188711 -0.20076282 0.05122442 0.4051874 -0.12659726 -0.109106176 0.04393005 -0.109667785 0.51130617 0.068411805 -0.1603864 -0.22664689 0.5335805 0.038396075 0.09112105 0.25155008 0.106617905 -0.14287582 0.10103485 -0.08507941 0.11685418 -0.10658381 0.1840131 -0.06450709 -0.40704626 -0.32993233 0.2824985 0.11611684 -0.24360654 0.14823738 -0.129829 0.31265956 0.19976297 0.0104007 -0.041424323 -0.082255535 0.007936785 -0.07040023 0.13857932 -0.23599339 -0.057609346 -0.34220862 -0.34147987 0.14211534 -0.3268715 -0.14283681 -0.28537232 0.18603729 0.22426453 -0.2138605 0.10301321 0.122835845 0.2305729 0.33464104 -0.19652624 0.2415306 -0.056619827 0.31473485 0.17627314 0.10748971 0.0443546 -0.0023836384 -0.058581635 0.00884195 0.03409633 -0.2684868 0.13607596
Vorstellung -0.15636422 -0.057210952 -0.23599525 -0.064052776 -0.016644662 0.098252945 0.115847535 0.07521294 0.085399084 -0.28046063 0.0022530542 -0.1404115 0.089579225 0.1177021 -0.30986804 -0.12079297 -0.046542183 0.13207887 -0.1285214 0.27528828 -0.098157294 -0.21090148 -0.12819521 0.14805947 0.066246785 -0.08400339 0.3224532 -0.10787013 -0.045085404 -0.052700486 -0.015687471 0.08079197 0.13506506 0.0023685116 -0.09827841 0.016309353 -0.14935614 0.072508164 0.051253054 0.13616084 -0.24721617 -0.174557 0.10863148 -0.002420285 -0.24476776 -0.0028951047 -0.062176317 -0.0587231 -0.28339955 0.028345337 0.1883585 0.17874047 -0.13924249 0.053217027 0.008652969 -0.04610151 -0.3753745 -0.11788019 0.22624865 0.10180338 0.145281 -0.016054276 0.2585916 -0.053014904 -0.09901328 0.37685028 0.19801255 -0.009834699 0.13395473 0.22448823 -0.08016769 -0.04359947 -0.106073745 0.181364 0.20840114 0.18155602 0.080842674 0.12872992 -0.096270725 0.23025689 -0.24798283 -0.014172058 -0.16108415 -0.12396457 -0.19704147 0.28955245 0.01784357 0.03469897 0.031150566 -0.30797386 0.079362586 0.20848638 -0.16298856 -0.2228975 -0.10207392 0.0351013 0.17160146 0.049908057 0.14855358 0.04940847 -0.1735204 0.16499405 -0.025839077 -0.02120766 0.20183997 -0.2414892 -0.21793008 -0.23319942 0.025314767 -0.16872728 -0.07328092 -0.3610815 -0.124380864 0.2650801 -0.2227288 -0.083958626 -0.18646754 -0.20766228 0.10841145 -0.029655553 -0.10426384 0.07859945 -0.01925115 0.0049288827 -0.04681874 0.21038368 0.019553669 0.2057188 0.037090674 -0.119952925 -0.076255515 -0.35969433 -0.0005462612 -0.14595038 -0.03463697 0.22044553 -0.080632366 -0.11762789 0.11278406 0.009591012 0.03056194 0.018375121 0.029143546 -0.031523023 -0.114578076 0.36758626 -0.19931482 0.22175814 -0.15175672 0.03455432 -0.12987752 -0.05140727 0.083561465 0.15416165 -0.11761865 0.013464594 -0.08743683 -0.24303181 -0.06452536 0.083140604 0.29530734 0.024788767 0.012435464 0.21046866 0.13834018 0.04739635 0.22844431 -0.0063036764 -0.32335243 -0.29334944 0.040389452 0.35206327 -0.36553347 -0.004899528 -0.23254061 -0.0063488465 0.1126023 -0.109256975 -0.10219318 -0.19331448 0.23041138 0.028580416 0.02758594 0.026816681 0.136475 -0.06173539 0.21184634 -0.37400305 -0.10416552 0.019696027 0.26557234 0.0867079 0.15289536 -0.22452347 0.100314006 -0.22486413 -0.13860412 0.1091091 -0.11724176 -0.031160526
bei -0.43796876 -0.6150651 -0.35690218 -0.6140692 -0.37563303 0.6175394 -0.07126398 -0.28420165 0.04152059 0.42654058 0.5862385 0.025348794 -0.2313499 0.23522913 -0.80575126 -0.6115008 0.12697938 -0.048922833 -0.019809587 0.5229532 -0.036176566 -0.5175029 -0.2880303 0.39069542 0.0263267 -0.29727045 0.90929514 0.19093166 -0.5470842 -0.64625406 0.40898722 0.38918737 0.39224958 -0.015841566 -0.5673518 0.1334174 0.0057474202 0.68188024 -0.15655416 -0.07208223 -0.47972944 -0.060624067 0.14841302 -0.30879337 -0.14213766 -0.22306147 0.44335696 -0.22210114 -0.45127815 0.15820393 0.19133727 0.6106375 -0.13007966 0.08542591 0.2276577 0.02688235 -1.1314176 -0.15397173 0.39780235 0.15252866 0.31179875 0.50348306 0.2843689 -0.11532866 -0.115254365 1.3852851 0.2109768 -0.08125712 -0.24494557 0.12441342 -0.38854662 0.24751572 0.5045986 0.22291267 0.14830346 0.24075308 0.17502554 -0.0102989115 -0.71984804 -0.10827211 -0.23428898 -0.07652153 -0.46834436 -0.32477492 0.030879788 0.6176238 0.07307232 -0.30101952 0.28668937 -0.28748474 0.3388346 0.18147124 0.09942234 -0.13726233 -0.090600304 -0.22189243 0.066992134 0.2570959 0.60962385 0.8957791 -0.6578558 0.7606442 0.26907685 -0.07004426 -0.011847977 0.10934551 -0.93698245 -0.13380225 0.26967934 -0.57298493 -0.70759535 -0.65643495 -0.7003782 0.3954462 -0.325259 0.14130382 -0.13491085 -0.040724352 0.37662756 0.6887278 -0.22335076 0.08166601 0.00528637 -0.0077721113 -0.29244465 0.661603 0.31347963 0.40650553 0.35409573 -0.37692913 0.2887147 -0.96002364 0.49400347 -0.06156863 -0.30157652 0.5273763 0.28075573 -0.35601306 0.37886634 -0.5748653 -0.4256595 0.25579622 -0.2239506 0.19189441 -0.8387164 0.18251432 -0.19056198 -0.010766363 -0.5483927 -0.38831055 0.083216324 0.45595306 -0.21912955 -0.06364548 0.0534099 0.33133805 0.0124253575 0.021419872 0.20456874 0.17528977 0.22928698 0.7553733 0.80685145 0.5390842 0.1735043 -0.17279369 0.20447055 -0.35615227 -1.1165152 -0.2332417 -0.06616539 0.8319316 -0.33982423 0.5744363 -0.17016305 -0.33490595 0.22617483 -0.041186143 0.21255586 -0.83180803 0.095579766 -0.17602612 0.29458788 0.34593362 -0.2600544 -0.117913425 0.48708165 -1.2419324 0.017139817 -0.36699954 0.5555978 0.33065435 0.3622987 -0.6492068 0.30561718 -0.35894993 -0.78013307 0.11689926 -0.43249807 -0.066934414
im -0.25900388 -0.5895859 -0.3907982 -0.38303053 0.004831952 0.6133516 -0.045731105 -0.11738888 0.1363485 -0.25902268 0.20644167 -0.18045476 -0.01914984 0.27521333 -0.15043913 -0.523072 -0.19963467 0.039989427 -0.21776447 0.5598036 -0.07284852 0.09480244 -0.23533548 0.34680787 -0.5351542 -0.35820857 0.5297583 -0.011312522 -0.024794403 0.10308614 0.1908352 -0.15658058 -0.11676894 -0.17804272 -0.4087854 0.12143565 0.10354422 0.5646085 0.23187569 -0.5586067 -0.9579534 -0.0654953 -0.26633948 -0.44456336 0.062372163 0.2080331 0.024222858 0.16484244 -0.20772803 0.3421909 0.43962854 0.2122495 0.16153826 -0.21193948 0.01596736 -0.5668481 -0.1281909 0.038100533 0.0245795 0.20742603 0.33411926 0.25898585 0.18154372 -0.07452468 -0.09833213 0.71081203 -0.0063168453 0.6402067 -0.023039628 0.30242684 -0.109078944 0.28385162 -0.1589727 0.1625627 0.25988284 -0.10919865 -0.09174131 -0.71941954 -0.2957363 -0.12931806 -0.027234491 0.014098628 -0.15778841 0.13603814 -0.09561914 -0.27905414 0.053124398 -0.07675013 -0.23287271 -0.51969707 0.2686975 0.5682602 -0.1369414 -0.08960087 -0.18546602 -0.41536683 0.020425646 0.13256074 -0.13267803 0.28299767 -0.048964746 -0.088154085 0.13439645 0.23870017 -0.22679855 -0.0026725566 -0.12204483 -0.21005528 0.4714143 -0.1413094 -0.32760832 -0.17656817 -0.15717839 0.15360156 0.08196844 0.2792165 -0.53669 0.07377319 0.5561823 0.14039627 0.28623772 -0.013653916 -0.29364166 -0.047930725 -0.37599537 0.8750543 0.21499963 0.13163383 0.22574456 0.032940216 -0.18899712 -0.5643397 0.15844479 0.32492626 -0.2246268 0.045780107 0.18273914 -0.37282383 0.54382914 -0.03105013 0.011089885 0.006184786 0.024931945 0.0909268 -0.060156137 -0.1840872 -0.142677 -0.036017384 -0.619974 0.06822591 0.005178032 0.04340023 -0.32686424 0.41711476 -0.5139 0.3746698 -0.2535086 -0.20214155 0.27462068 0.28669912 -0.049179938 0.27994403 -0.096544154 0.26430652 0.15508722 -0.30670848 -0.10046821 0.038163416 -0.11257349 -0.16440143 -0.22798316 0.6062817 -0.20988724 -0.14930469 -0.22132137 -0.31729683 0.07619754 -0.18540418 0.026824277 0.14539798 -0.3805407 -0.08034134 0.14572722 -0.09321677 -0.1674253 -0.02860879 0.15952279 -0.37350452 -0.29532415 -0.0069424403 -0.011618404 0.62173253 0.4749633 -0.34930444 -0.16789553 -0.09513744 0.12817742 0.49853104 -0.47699487 0.5301868
Hause -0.24497809 -0.21537276 -0.13141999 0.011775111 -0.1459262 -0.015695915 0.019220168 0.051625453 0.1748717 -0.0508086 0.019164937 0.044758342 -0.036795847 0.080461666 -0.08174717 -0.10069595 0.14353831 0.0317862 -0.04532809 0.023453843 -0.1054656 0.027269043 -0.03495126 0.06542428 -0.0025035713 -0.046420336 -0.013501846 -0.07160581 0.060717296 0.039063256 0.0012872615 -0.08647439 -0.014969455 0.012452244 -0.046423357 0.16873468 0.20458803 0.13315037 0.025503626 0.06054956 -0.23621596 -0.061359927 0.29419756 0.048059013 -0.020320741 -0.12640701 -0.029841114 -0.072803654 -0.0019942385 -0.001953909 -0.15036023 0.14362763 0.05443759 -0.014987504 -0.14744373 -0.13903728 -0.20323613 -0.06923281 0.0057761897 -0.058753837 -0.103265494 0.07440209 -0.10555031 -0.102495216 0.048168834 0.22860679 0.00043918425 0.17755316 -0.051822253 -0.06591325 -0.11341849 -0.027506312 0.09829389 0.06659249 0.25316122 -0.073815726 -0.33439764 -0.028808188 -0.09992725 0.09482209 0.0023382618 0.0026418054 -0.19837601 -0.2644071 -0.052101657 0.090252236 0.23775329 0.083741024 -0.059496325 -0.08393185 0.09631547 0.11362369 -0.22007267 -0.13605227 0.017204685 0.09889955 -0.011913355 -0.04000609 0.10839443 -0.0554397 -0.149465 0.03911973 -0.06607544 0.032424282 0.07609591 0.020211259 -0.045983426 -0.2196426 0.16708678 -0.058526047 0.051143203 -0.20771834 -0.017888678 0.114787705 0.004590859 0.24166061 0.11041635 -0.25415343 0.17636192 0.012721272 -0.06546628 -0.0622898 -0.05020956 -0.09292679 0.086960346 0.07266022 0.006598743 -0.16933915 0.11216461 0.067514494 -0.056585737 -0.23757368 0.110024884 -0.10886405 -0.20055266 0.26428056 0.07794385 -0.36122057 -0.07083062 0.103222564 -0.06203345 0.17535491 0.052969262 0.20170526 -0.21137623 0.25199768 -0.12831521 0.19063836 -0.12593897 0.12794617 -0.08623079 0.025436692 -0.010525171 0.16685568 -0.077680044 0.16993749 -0.21138498 -0.15668717 -0.13016261 0.16573538 -0.10744335 -0.14178196 0.08000374 -0.010619898 0.18825725 -0.011355034 -0.14580049 -0.034972325 0.036844254 -0.2856387 0.017281296 0.14906374 0.049965728 0.05912681 -0.15349002 0.0150715895 -0.0632463 0.0097910715 0.1394361 -0.11408718 0.06549746 0.13388151 0.07805934 0.12891485 0.034104366 0.018913837 -0.08872791 -0.16841578 0.041401982 0.13759582 0.08353266 -0.092858225 0.078145616 -0.142225 -0.08791264 0.0010231624 -0.081533454 0.236618 0.0131984055 0.113643125
. 0.17470208 0.09026946 -0.120313816 0.011472365 -0.08530569 0.13816693 0.030075965 -0.017647963 0.059635617 -0.32635304 -0.19193716 -0.03021376 -0.06519428 -0.09743354 -0.2106813 -0.0036367823 -0.03424454 0.11889445 -0.039314874 0.087165736 -0.1733633 0.013660336 -0.0037763945 0.045864325 -0.043501493 -0.108844735 -0.020295091 -0.011916833 0.1211155 0.022276675 0.099773854 -0.030558094 0.053120274 -0.061831042 -0.0491288 0.09642235 0.16081122 0.018176109 0.07942902 0.033812065 -0.012984295 -0.028607355 0.1960028 0.067024104 -0.0054121306 -0.18968147 -0.13117644 0.0042190123 0.0060709086 -0.024605667 0.06452323 0.0049457317 -0.019175077 0.11596175 -0.1957346 -0.1575129 -0.039578833 0.0010585408 -0.06144031 -0.11687755 0.013892441 0.099487126 0.010333698 -0.11429192 0.08738023 0.15256652 -0.06637726 0.037359748 -0.021092867 0.000944796 -0.06717761 0.11466493 -0.1539938 -0.021564042 0.16475283 -0.021664271 -0.1482686 0.032366972 -0.105097614 0.2370633 0.054266896 -0.07948491 -0.15960692 -0.146328 -0.015204189 0.100673325 0.05182398 0.078955986 0.04035052 -0.13263603 0.17120685 0.29115537 -0.11294348 -0.28958845 -0.09524674 0.12751013 0.07742076 -0.054411307 0.20508091 -0.030883497 0.06872161 0.0475505 -0.1347981 0.013710428 0.012041805 -0.05302899 -0.02871883 -0.16261418 0.20808049 0.10376364 0.22875427 -0.2515282 -0.18832122 0.03527563 -0.13286634 0.136772 0.031196507 -0.24855177 0.11577163 0.016231988 0.12687394 0.051965408 -0.05116676 -0.032048784 0.122903384 0.026972223 -0.021424593 -0.12457649 0.06584005 0.13327625 -0.034546588 -0.0807585 -0.14145352 0.02759969 -0.19058664 0.08882825 0.03379738 -0.120474696 -0.04691586 -0.07120856 -0.027514147 0.11430571 -0.17733952 0.21153104 -0.14941126 0.2417288 -0.10590059 0.15798078 -0.12009481 0.01739225 -0.111918785 -0.02633004 -0.1486309 0.015364753 -0.0891165 0.041468352 -0.11185551 -0.14351475 -0.10044736 0.19759975 0.092954524 -0.15118827 0.019890105 0.049196348 0.057954624 0.062149752 -0.06174193 -0.06039541 0.051181044 0.0038379137 -0.02491529 0.15143302 0.113025896 0.056858417 -0.07618086 -0.044955973 -0.0049839993 -0.06500273 0.029234884 0.01064318 0.030154437 0.17309985 0.014046316 -0.009292501 0.07657578 -0.028677208 -0.050610453 -0.08527011 0.1364598 0.01571045 0.24110273 0.041137 0.065458044 0.009496284 -0.023672044 -0.021556871 0.097811416 0.18431444 -0.023360185 0.12599011
normal -0.051265743 0.14344773 -0.01394692 -0.11692316 -0.13756454 -0.09493034 -0.012242568 0.13247304 -0.15444082 -0.27589235 -0.10797441 0.19331679 0.1958819 -0.19828425 0.116076976 0.14116308 0.19158839 0.0034002757 -0.010475541 -0.057684246 -0.20659724 -0.033088032 -0.045280717 -0.02011062 -0.055831794 -0.14929645 0.20242275 0.15269929 -0.12468973 -0.033663224 -0.0465738 -0.051008563 0.32558876 -0.13317169 0.1607834 0.13972925 0.020686405 0.29389146 0.12686066 0.012395639 0.019162731 0.15397413 -0.04758364 0.26759118 0.16403766 0.032367684 -0.20151466 0.09093818 -0.21359593 -0.25802913 -0.15692408 0.043236874 0.09335833 0.08940169 0.10259896 -0.29053125 -0.42174807 -0.026457634 -0.108904496 -0.31249785 0.022633225 0.236765 -0.02720318 -0.060399424 -0.20328996 0.19768679 0.14306909 0.020139633 -0.042350788 0.07003093 -0.12784533 0.22832516 0.21844974 -0.04674511 0.120222375 0.09195732 -0.03583247 -0.15341514 -0.28483826 -0.043908115 0.16564704 -0.15806288 -0.41592723 -0.069542766 -0.065399215 0.068690486 0.13619316 0.046414386 0.2923576 0.0076134317 0.33916518 0.23723337 -0.096841365 -0.34936118 -0.18988772 0.17052823 0.020333625 -0.15386093 0.05679633 -0.30865142 0.2553107 0.053256553 0.18546116 0.011736684 0.22125937 -0.17717893 -0.00071043405 -0.10748658 0.25023204 -0.05191902 0.23742428 -0.27571595 0.02452213 0.047720544 0.18608344 0.29420456 -0.13130492 0.05433728 0.2592146 0.031037329 0.22889073 -0.01913532 -0.27250135 0.14153114 -0.1289295 0.2406007 0.029810864 -0.09505445 -0.057332706 0.12277543 -0.23824473 -0.0900116 -0.1288443 0.18444069 -0.18261857 0.027535634 0.018901717 -0.11522536 0.098366715 0.011091649 -0.14210483 -0.05434236 -0.20851588 0.40346253 -0.16448815 0.061021924 -0.08977811 0.34344527 -0.18662435 0.21533187 -0.18637276 -0.26913106 -0.16996731 -0.07190511 -0.114313714 0.10697979 0.06306609 -0.3001055 -0.18425314 -0.06048278 0.1099685 -0.14847955 0.29561988 0.20018287 0.23477076 0.002058024 -0.17748232 -0.11828502 0.29858884 -0.15753843 -0.16978195 0.16878836 0.03938419 0.095683984 -0.1203387 -0.031717155 0.04719182 -0.064683594 0.09277116 0.02206973 0.111656584 0.0031210298 0.12302702 0.25994524 0.079217255 -0.22168297 -0.20687911 -0.11874087 -0.07130782 0.28179067 0.4937656 0.021102905 0.024162613 -0.035575394 -0.058068365 0.10006307 0.14032094 0.041970167 0.24445027 0.17700504
keine -0.7189393 -0.7736265 -0.05529146 -0.5152458 -0.107845515 0.5439316 -0.15029012 0.09767811 0.21538258 0.08815011 0.24714708 0.07714631 -0.073635735 0.23758233 -0.361568 -0.3303025 -0.0026884512 0.082859784 -0.15355778 0.3326861 -0.052688345 -0.34353283 -0.32966453 0.444194 0.1680592 -0.28299367 0.5172934 -0.02501673 -0.23816559 -0.30590567 -0.10134546 0.31262928 0.32982215 -0.29048133 -0.4608864 0.06729409 0.12171637 0.22923847 -0.14002551 -0.07659744 -0.5396304 0.111644655 0.2635667 -0.070922196 -0.4109557 -0.35553914 0.1024794 0.06858074 -0.25829858 0.15714234 0.04281411 0.33683485 -0.15196311 0.043359466 -0.052592784 -0.1033266 -0.71907717 -0.35961083 0.5106852 0.12637655 0.3747684 0.11453419 -0.029535763 0.065447085 0.04338792 1.0203424 0.34897694 0.14909096 0.07290363 0.014447561 -0.10888756 0.27261674 0.21516271 0.22507578 0.036042023 0.18137708 -0.10359986 -0.14706725 -0.36670414 0.13977823 -0.14013971 -0.0876243 -0.21409778 -0.0920116 -0.5108057 0.33399984 -0.06485438 -0.20205057 0.07694499 -0.32352546 0.23339449 0.065042265 -0.29083177 -0.37921357 -0.14302829 -0.15239225 0.15835832 0.06261258 0.36727515 0.29622063 -0.3138127 0.3225387 -0.020070324 0.0005344007 -0.022158442 -0.24930711 -0.43582076 -0.17664963 0.24451306 -0.43956238 -0.4518217 -0.54165643 -0.15706167 0.40296608 -0.22167729 0.06534766 -0.1381555 -0.2686812 0.4418489 0.07818054 -0.13318741 -0.066151515 -0.019784788 -0.055550717 -0.054555357 0.3102092 0.2348556 0.21635966 0.12968074 -0.31337777 -0.12094415 -0.67014134 0.31307644 -0.023821536 0.091379836 0.488638 0.28077865 -0.2444305 0.33035883 0.111377604 0.010917458 0.18953384 0.06201884 0.13716142 -0.5073746 0.33951062 -0.24851748 0.263608 -0.28969273 -0.031651154 -0.11480856 0.18487383 0.26652247 0.119290516 0.0058125933 0.37000987 -0.2015511 -0.3071394 0.07264618 0.2608496 0.37369877 0.1851858 0.18167147 0.3452393 -0.02291037 -0.076145865 -0.027230695 -0.06260912 -0.7285591 -0.36686084 -0.19101816 0.48769343 -0.49275568 0.14827053 -0.48059028 -0.12552215 0.18460591 -0.29830155 -0.0137842605 -0.54218596 0.19974671 -0.35115418 -0.21345331 -0.08247343 -0.12598778 -0.19952808 0.5225291 -0.78964037 -0.20634338 -0.24193074 0.22161825 0.3021575 0.09241608 -0.515474 0.0686846 -0.20348068 -0.49668723 0.02319741 -0.06091364 0.19406217
Prograf -0.79165673 -0.17037782 -0.19971545 -0.36103213 0.023938058 0.38650495 -0.023983048 -0.10301171 -0.27766022 -0.096987635 -0.16794589 0.073896885 -0.27376842 -0.469288 -0.11995181 0.06504226 -0.62335277 0.57821727 -0.25401387 -0.013855136 -0.41909844 -0.5854591 0.30346036 0.16047864 -0.98361325 -0.40371957 0.13288343 0.019654837 0.09044566 -0.21475723 -0.30735576 0.3469109 -0.3920344 0.06126466 0.26818272 -0.2905198 -0.09514068 0.3819967 -0.51765037 0.08010744 -0.41151038 -0.0042028595 0.6029826 -1.212473 -0.616907 -0.72235227 -0.3919795 0.10819078 -0.0069559445 0.50545347 0.29708877 0.6910548 0.24568589 0.011312016 0.13272817 -0.4015843 0.39792696 -0.22840545 -0.6612631 -0.70483077 0.07476671 -0.40030637 -0.69892436 0.21787173 -0.16130581 0.1389576 0.07718598 0.25096568 0.47801825 0.51898754 0.33779824 0.17487925 0.23393567 0.39919984 0.037881162 -0.285289 0.25883582 -0.53278106 0.007545642 -0.42207545 0.29669312 -0.67521644 -0.3263237 -0.27853766 -0.2617111 -0.30467492 -0.059910677 0.1387853 0.22973058 -0.1608905 -0.52218366 0.3645459 -0.71026134 -0.0075611994 0.054026898 -0.088000864 0.44272766 0.19930042 0.35221633 -0.21763778 -0.06575685 -0.02491922 0.26755914 -0.11181446 -0.55968297 0.18442073 0.09097881 0.077142395 0.09821813 -0.7765836 -0.1125137 -0.10722164 0.03933236 0.17729731 -0.12923266 -0.12010526 -0.12848844 0.027039483 0.26185688 0.38727415 0.28826186 -0.029646961 0.23872495 -0.40330255 0.5960863 0.048371967 -0.14259984 0.008880865 0.038025297 -0.0018053374 -0.21230678 -0.5044258 0.14004524 -0.24806796 -0.065721676 -0.45355386 0.79084766 -0.20555185 -0.013390999 0.36210704 -0.06874052 0.31703272 -0.6338874 0.4501258 -0.10541601 0.31551516 0.38851196 0.070689574 0.12564668 -0.4408285 -0.1347024 -0.8216911 0.05606957 0.25369108 0.2361852 0.26595312 -0.5566136 -0.12446472 -0.42354816 -0.17425567 -0.30923736 0.0012754153 -0.649758 0.2069819 0.26813483 0.30424482 -0.483193 0.11947007 0.36726895 -0.38743377 -0.4130961 -0.0026148846 0.21977529 -0.3682997 -0.050197586 0.41016632 -0.009113872 -0.020841593 0.58719903 -0.14036986 0.5354424 0.46726137 -0.048415836 0.054999154 0.15980232 0.11609406 0.41699308 0.26379582 -0.37296066 0.015693562 0.2537777 -0.774458 0.7694099 0.08090777 -0.2335955 -0.06601056 0.3300206 0.85808593 0.13120013 0.376077
Spiegel -0.315895 -0.23293194 -0.12487563 -0.0009475156 0.049784567 -0.09846375 -0.07348192 0.41152596 0.5833929 -0.09503436 -0.12803887 0.06680764 0.115354605 -0.09554555 -0.32399362 -0.44234923 0.26686507 0.19144742 -0.42194232 0.24190724 0.24237068 0.11719956 -0.32481995 -0.046979528 0.21084177 -0.03370882 0.29636142 -0.35561177 -0.32351816 -0.036023755 0.48741633 -0.18415512 0.51838744 -0.32596388 0.1783055 -0.4903708 0.120494805 -0.11471193 -0.47105262 0.07432862 -0.117715575 -0.59312963 0.28082243 -0.47770965 -0.065887116 0.29589874 0.3092581 -0.11414426 -0.65761113 0.22602469 0.1475069 0.18105043 -0.14375545 -0.04593582 -0.32587352 -0.21609831 -0.18531442 0.0061742105 -0.13671683 0.12315521 -0.04291382 -0.055381123 0.19175866 -0.16967046 0.46099615 0.0710257 0.28838804 0.06387097 0.43498814 0.78479344 0.15326947 -0.21054569 0.35269776 0.077147566 0.5666439 -0.04710557 0.26859617 0.35416394 -0.22897956 0.31813374 -0.5699005 -0.34214 0.1405615 -0.40422055 -0.34338036 0.4318607 -0.03726267 0.24148491 0.16316022 -0.094297916 0.26238212 -0.024295641 -0.081027314 -0.34418443 0.30811378 0.28621322 -0.48110825 0.34183156 0.6587068 0.16290446 -0.27857485 0.22127493 -0.24207142 0.171144 0.015005906 -0.13945967 0.17098117 -0.25575528 0.121650875 -0.14734843 0.42062742 -0.536645 -0.22823402 0.31372255 -0.2121453 0.2782476 0.15089394 -0.58832264 0.41030955 0.08519657 -0.4368603 0.71262544 -0.15751587 0.16527157 0.2520881 0.33469495 -0.40939093 -0.13261436 0.20779979 0.35678148 -0.025435548 -0.7108678 0.295747 0.13593172 -0.11111036 0.2855206 0.40587795 0.25924072 0.0972125 -0.17226455 0.49929425 -0.044809185 0.22493666 0.079286575 -0.12897499 0.552972 0.11782666 0.6955551 -0.573566 -0.29267696 -0.68540424 -0.37029198 -0.01946536 0.29230478 0.28095376 -0.055147417 -0.41799572 -0.0625863 -0.4841441 0.07853624 0.3637967 0.39159808 0.39381465 0.24047038 0.25794736 0.3009685 -0.099375725 -0.53526205 0.035240673 -0.61838174 0.3474398 -0.13356885 -0.7707086 -0.033548716 0.14916928 0.25891843 -0.06547087 0.17737609 -0.49222642 0.043523196 0.40027896 0.53822714 0.03724548 0.49385288 0.07347705 0.3008627 -0.3247821 -0.44377983 0.101922326 0.10427185 0.07570973 0.17877741 -0.12978934 -0.01423696 0.27078003 -0.015281654 -0.15315747 0.48874858 -0.1728885 -0.19468737
Sono 0.31848717 0.13959084 0.23986349 0.13405553 -0.261386 0.19348277 -0.15258448 -0.23197141 0.33293098 -0.17824453 0.22121361 0.62783056 -0.097333066 -0.34754992 0.03994516 -0.06567534 0.13947204 0.47747815 0.21580508 0.29345787 -0.33129635 0.4256017 0.16200268 0.32239074 -0.42278737 0.07030291 0.43918443 0.6238415 0.14022158 -0.14175086 0.040529914 0.027780237 -0.13743968 0.32445964 -0.080291465 -0.03595718 0.36082935 -0.31374153 -0.034699943 0.23564984 -0.059717268 -0.14820184 0.73541313 0.090972625 -0.11947431 -0.2516174 0.03904227 -0.29865783 -0.24121843 -0.024513131 0.6329462 0.030404031 -0.025281372 -0.026291138 -0.49466136 -0.24842158 -0.292734 0.29516026 0.06931371 -0.63649064 0.28925887 -0.20575877 -0.056538764 -0.18303728 -0.08070825 0.3814424 0.31048852 -0.017766913 0.015631003 0.18150416 -0.0050234585 0.338348 0.1368741 -0.016974365 0.23589237 0.058397334 -0.23507011 -0.035914302 -0.07376386 0.034712255 0.2200105 -0.32820505 -0.0012431941 -0.59447217 -0.32664722 0.055612005 0.5726199 0.5667864 -0.07271158 0.014890614 -0.18932474 0.55723685 -0.06537102 0.013114968 -0.36168376 0.008598317 0.2960219 0.10565704 0.3504576 0.17739564 0.011203084 0.018922511 0.22347672 0.1645131 0.12768416 -0.12147384 -0.14062351 -0.03632724 0.023373542 -0.44615832 0.08853886 -0.07881996 0.37102208 0.5999998 -0.21026133 -0.28337228 -0.43337625 -0.48050788 0.42562473 -0.109423354 -0.2425349 -0.10486334 0.45590338 0.090310276 0.30476132 -0.041503493 -0.20962192 0.17357677 0.11219002 -0.16575013 -0.34547022 -0.5869267 0.42268756 -0.14446345 0.036156047 0.030025475 0.81717247 -0.07174735 0.06263177 -0.039395593 -0.36014763 0.13691607 0.07272455 0.35455608 -0.06633203 0.29122728 0.34184524 0.13961548 -0.10786605 0.41722357 -0.20513909 -0.12991156 -0.046607584 0.38297036 0.19391048 0.10016464 -0.82911307 -0.13396211 0.06782098 0.15136594 0.40518963 -0.18826678 -0.14647682 0.20787945 0.17348498 0.025422197 0.40026775 0.03871485 -0.078955874 -0.26306584 0.099002324 -0.10121114 -0.19462685 0.06261561 -0.018761091 -0.20144717 0.094339974 -0.055338196 -0.35805318 -0.087223716 -0.14884877 -0.027934052 0.029237285 -0.19853833 0.21127658 0.42393863 0.51681423 -0.27553567 0.5230382 0.21362977 0.23680823 0.040339638 -0.093646854 0.15589681 -0.038697053 0.25696552 -0.38752934 0.19557814 -0.09486599 0.029026782
: 0.22653991 0.04193788 -0.24835752 -0.0072077885 -0.06344169 0.018644575 -0.11481082 0.14141755 0.04633061 -0.5389812 -0.16521968 0.086685754 -0.16540436 0.017264826 -0.35967094 -0.19241074 -0.14799976 0.026848247 -0.036139324 0.23409902 -0.18075767 -0.09155549 -0.085153975 0.30441397 -0.1483302 0.061574534 0.030582596 0.04190988 0.22480594 0.1322199 0.30035686 0.19311322 0.05746357 -0.18675517 -0.11510567 -0.034905903 0.20828985 0.11998161 0.019856269 0.11028035 -0.22289528 -0.10330322 0.08702902 0.0122155165 0.08407946 -0.34237224 -0.033250634 -0.101853274 -0.05911138 -0.21459612 -0.055371687 0.07180969 -0.26034856 -0.090752795 -0.20994875 -0.4265228 -0.010988947 -0.1517814 0.026970344 -0.09898351 -0.19317736 0.034003105 -0.018760975 -0.08145481 -0.2624596 0.13665959 0.044254843 0.11137913 0.023871863 -0.031553313 0.18094103 0.08175927 0.0964264 -0.09112423 -0.08029431 -0.25451043 -0.24602135 -0.039693553 -0.1413904 0.29722685 -0.16446291 -0.25490588 -0.014656879 -0.16124688 0.021242801 0.12052326 0.21902287 0.14805369 0.1317658 -0.088435635 0.19091524 0.29607594 -0.21620879 -0.38953945 -0.20023927 -0.009076083 0.20209642 -0.19818313 0.2654481 0.13295378 0.01479906 0.19239946 0.028177116 0.04902618 -0.095842384 -0.024389021 0.21291675 -0.28621292 0.37633672 -0.0053816284 0.2805913 -0.22397007 -0.33219215 -0.20356172 -0.09395394 -0.052087914 0.13257004 -0.35557923 0.042836387 0.12624596 0.14099492 -0.062912665 -0.1938356 -0.011417669 0.1533204 0.36443496 0.037066434 0.0804516 0.018019425 0.21783131 0.25723028 -0.32099107 -0.21189782 -0.09587699 -0.2532863 0.09394024 0.09037104 0.0220729 0.2357757 0.10131636 -0.08638829 0.2846877 -0.17343354 -0.104295224 -0.067463435 0.34756255 -0.33120182 0.048857465 0.23048963 0.085026674 0.004038472 -0.13812825 -0.3723255 -0.018169804 0.19570594 0.34383112 0.13885601 -0.46942666 -0.07183484 0.42631143 -0.0089290915 -0.17430489 0.042597502 -0.015660424 -0.123269856 0.007285658 0.06150331 0.09155317 0.044695377 0.2266134 0.1359014 0.011944066 0.152579 0.021957977 -0.11940734 -0.19493686 0.019667534 -0.035260092 -0.2003916 0.076369844 0.16451803 0.554319 -0.11186077 -0.02180628 -0.12966655 -0.0867885 0.033462226 -0.236766 -0.03605612 -0.33634216 0.31563368 0.09864364 0.088564046 0.17365392 -0.013438204 -0.0777005 0.17447352 0.052896664 -0.08372824 0.074053
Tx -0.42011055 -0.24581541 0.11331645 -0.277669 -0.21843313 0.60788536 0.14407049 0.40147358 -0.24615076 -0.03507313 -0.1266403 0.15910283 -0.05505592 -0.16954897 0.029757075 0.079055175 -0.04609688 0.016641479 -0.45098028 -0.009973455 -0.438023 0.14762989 0.14085777 0.29803237 -0.14195608 -0.07545757 0.33066547 0.17161062 -0.25815502 -0.12798102 -0.039381918 0.15269251 -0.09827412 -0.084432036 0.34148332 -0.15430708 -0.24981919 0.40456915 -0.14324364 -0.057374626 -0.1601414 0.3527616 0.3668512 -0.3428572 -0.07722017 -0.20868365 -0.103083454 0.31739518 -0.19915037 0.15925224 0.13744193 0.20138653 0.079045184 -0.19014844 -0.20373249 -0.12858655 -0.08702693 0.039291516 -0.11931807 -0.06411961 -0.13588476 0.062058814 -0.60220635 -0.33763942 -0.3980226 0.31239292 -0.04936126 -0.0023755264 -0.4414092 0.09562919 0.26839072 0.45563748 0.38980904 -0.5584668 0.3426315 -0.20370544 -0.1683221 -0.110850826 0.1024235 -0.07552492 0.45779708 -0.43596762 -0.22456487 0.04533289 0.2746332 0.16024917 0.41173503 -0.36231247 0.20095761 -0.004107162 -0.058717575 -0.10904139 -0.36510906 -0.16257606 -0.32824123 -0.08507498 0.22128512 0.066790536 0.35691106 0.08478142 0.4875193 0.1773728 0.13448286 -0.11007513 0.14998072 0.33706957 -0.10427961 -0.09747675 0.3590611 0.32210964 -0.44586095 0.027526248 -0.03974007 0.100484855 0.1692174 0.185872 0.107350476 0.015900843 -0.013849839 0.49219522 0.6350366 0.14245377 -0.23423335 -0.3628299 0.15862368 0.19858307 0.05039419 0.11679148 -0.19700116 0.33568716 0.22228539 0.04284373 -0.19344017 -0.60338485 -0.23414342 0.3854095 0.24882019 -0.48954368 -0.08007353 0.04130524 0.27582347 0.28806317 -0.34258646 0.3641194 -0.1464126 0.23708254 -0.17472613 -0.0166512 -0.056881484 -0.019432535 -0.33237305 -0.21594045 0.17511047 0.15673335 0.042564385 0.10092443 -0.16711868 -0.34372178 -0.063714534 0.026222905 -0.09406658 0.13057564 0.31823206 0.008367767 -0.16428104 0.22858143 -0.17369534 -0.063684456 0.5944127 -0.43551213 -0.33053058 0.31042618 -0.18177025 -0.034380358 -0.13965295 0.14542222 -0.13439316 -0.064316764 -0.41440943 0.24771829 0.4246462 0.19762202 -0.009761649 -0.1185082 0.017240368 0.03456168 0.24768595 -0.0735399 -0.2497841 -0.050736688 0.26520848 -0.008905212 -0.013023817 -0.35275003 -0.26663002 -0.099953525 -0.15268315 0.37761715 0.03177541 0.2579776
kein -0.50994354 -0.5220158 -0.17366178 -0.26506987 -0.10309242 0.25543174 -0.06554115 0.10423653 0.0067217704 -0.034451272 0.086667545 0.0054536564 0.11425468 0.07904964 -0.1596025 -0.2617642 -0.068617895 0.022024121 -0.073607154 0.32585528 -0.1707669 -0.2843809 -0.17826678 0.14460655 0.08812119 -0.22895384 0.25855467 -0.06959221 -0.32969326 -0.20820004 -0.10900221 0.040595673 0.26758015 -0.2225532 -0.21659133 0.042664744 -0.06338681 0.12635131 -0.04040793 0.038775355 -0.32982776 -0.053391412 0.05611927 -0.084447674 -0.26405776 -0.19370869 0.1678508 0.0066113574 -0.23522681 0.16864839 0.08479696 0.13672046 -0.15689375 0.104135424 -0.0236536 -0.16454142 -0.42980772 -0.23019172 0.24532263 0.0762968 0.3691824 0.019726591 -0.033733185 -0.0812893 -0.037373926 0.55918807 0.3017288 0.07900615 0.11360755 0.027512543 -0.26672304 0.1437248 0.064727604 0.1814344 0.2340891 0.019640334 -0.076453164 -0.07195322 -0.14669931 0.13865004 -0.05580538 -0.13869636 -0.18908851 -0.12897158 -0.2483092 0.20995155 0.008025652 -0.054356784 -0.04347824 -0.1858868 0.16362095 0.269018 -0.26076517 -0.23747906 -0.08854972 -0.062773556 0.2643475 -0.015467204 0.11051077 0.13788867 -0.25424728 0.31719202 -0.014180109 0.16241652 0.06770641 -0.23505193 -0.2894044 -0.17746711 0.12746981 -0.24975654 -0.2599643 -0.32474 -0.019561708 0.3223184 -0.13851155 0.11843387 -0.14048468 -0.33635858 0.34612688 0.14006591 -0.042863715 0.08475894 -0.09745054 -0.14812173 0.069978945 0.11725365 0.15417254 0.13724637 0.14390832 -0.1283389 -0.048960242 -0.36876994 0.07481035 0.10880374 0.081284374 0.33593732 0.12385811 -0.16432421 0.16129322 0.0750296 0.11044457 0.13244686 0.012595112 0.08124424 -0.31236196 0.23996678 -0.26885387 0.1772615 -0.096580185 -0.14243811 -0.24434511 -0.022449212 0.10860414 0.026308367 -0.030734587 0.29236427 -0.18084525 -0.20484109 0.017357143 -0.03322649 0.19856757 0.13293147 0.22935346 0.10757747 0.09906116 -0.06989755 0.03906696 -0.17646705 -0.31433186 -0.24425516 -0.28957444 0.33713695 -0.38898373 0.06553999 -0.22240175 -0.009956905 0.005754204 -0.3182852 0.11819909 -0.23312746 0.110117875 -0.14486592 -0.1307524 -0.020021448 0.07239156 -0.02761239 0.28686827 -0.5172016 -0.08889796 -0.033674154 0.2106541 0.0021470245 0.024395272 -0.31548315 0.06997702 -0.090591304 -0.34144226 0.097769104 -0.051259987 0.088219255
nach -0.5296524 -0.4912339 -0.16876614 -0.6632272 -0.48422644 0.51362455 -0.0719125 0.10913025 0.18602477 0.1440622 0.25985503 0.03164072 -0.18490131 0.21172857 -0.2900373 -0.4622074 0.17748633 0.22520398 -0.25916532 0.6057842 -0.19772784 -0.2747496 -0.026528046 0.4440771 0.035491135 -0.46023846 0.72510993 0.043247633 -0.48956424 -0.30403253 0.26069853 0.27260277 0.38250422 -0.51195794 -0.69195807 0.071779676 -0.043581944 0.5904857 -0.17830732 -0.07855231 -0.6918054 0.032612726 0.06872105 -0.07996271 -0.06482942 -0.07427396 0.17598762 -0.14585939 -0.33992073 0.2250617 0.09242886 0.6226089 -0.030488735 -0.039083045 -0.026235776 -0.20127949 -0.6846051 -0.206261 0.52526224 0.053719692 0.3696048 0.2530238 0.26866457 0.05192688 -0.18496491 1.2043396 0.18463159 0.33884123 -0.04611907 0.11879879 -0.34049326 0.21890223 0.27381498 0.1775556 0.1681715 0.14728247 -0.08107855 -0.037127785 -0.42948806 -0.011165253 -0.40601686 -0.17741247 -0.368807 -0.04697885 -0.32018673 0.24253576 0.011111213 -0.013842784 0.0792674 -0.3205221 0.5779026 0.033856347 -0.19100755 -0.11482847 -0.04066832 -0.068207555 0.12506549 0.28207484 0.42443758 0.56437695 -0.40101242 0.5203353 0.2240705 0.06768022 -0.07064825 -0.16773002 -0.65392315 -0.23924874 0.17776139 -0.36850956 -0.6526499 -0.6839723 -0.16428445 0.3745541 -0.34798315 0.089474864 -0.11592908 -0.20789215 0.69474685 0.25371403 -0.27126753 -0.12686294 -0.00816215 -0.081994295 -0.2910194 0.3232849 0.2348331 0.47931454 0.26347622 -0.34916443 -0.0021257552 -0.8243248 0.6061397 -0.22350232 0.2111919 0.54284245 0.22269519 -0.33807728 0.43191203 0.20312558 0.054694634 0.39635506 0.13956441 0.019780165 -0.34599683 0.12070966 -0.19737904 0.06076844 -0.42276534 -0.16345882 -0.15713744 0.41463387 0.30360803 -0.020656196 -0.04663813 0.29387182 -0.05543342 -0.2450276 0.20074037 0.1606753 0.22798291 0.36638334 0.3302186 0.35075992 0.15191483 -0.120448165 0.13478269 -0.060965016 -0.9976257 -0.46995577 -0.2262786 0.65086585 -0.5660692 0.063114055 -0.5532281 -0.21343163 0.24251808 -0.13898803 0.090402946 -0.79972297 0.19639385 -0.3663386 -0.13842659 0.12885305 -0.40213105 -0.042632353 0.23255703 -1.0282018 -0.20225418 -0.14149168 0.22977567 0.31127265 0.09360579 -0.57658595 0.3067048 -0.090308495 -0.701744 0.112439364 -0.15787165 0.1956605
AZ -0.42764726 -0.11082756 0.1379507 0.117381334 0.48527956 -0.03741201 0.083564244 -0.034480993 0.13426597 0.2653739 0.2182575 -0.19250555 -0.5155841 0.12233346 -0.08579186 0.4165843 -0.064644486 -0.020567821 0.2660924 0.20848407 -0.15148331 0.30407125 -0.053948853 0.20014423 -0.45893377 -0.17369685 -0.029703666 -0.274551 0.2900854 0.09010075 0.07275181 0.21530752 -0.0806056 0.2714083 -0.06186042 0.4083847 0.17772713 0.47232974 0.20260017 0.15004395 -0.06975663 -0.41459367 0.6031957 0.16609451 0.17198719 -0.3447052 -0.084984794 0.24967232 0.5385835 0.08179325 0.41202384 0.21174827 0.088773936 0.085339695 0.15153785 -0.20867448 0.011829998 0.08733297 0.25980827 -0.22667706 -0.038850196 -0.25342134 -0.55051845 -0.14216226 0.560399 -0.008442921 0.2673509 0.08774394 0.16612957 0.17768666 0.2102647 0.20912781 -0.10713192 0.10110541 0.11186539 0.033024475 0.052330624 -0.15789786 -0.111356534 -0.14347984 0.1435314 -0.19204868 -0.01428959 0.09070821 -0.2674212 -0.026564121 0.43993092 0.22119337 -0.3216815 -0.67898965 0.10941025 0.363476 -0.08775824 0.089572564 -0.36362097 0.12567963 0.06545402 0.2302804 0.4047376 -0.3890587 0.054046243 -0.13059078 -0.13572323 -0.0060189595 -0.122207366 0.0711634 0.046005093 0.077659234 -0.0062781204 0.035420097 0.17906862 -0.18654346 -0.048464447 0.33728307 -0.20739469 -0.08689124 -0.19184992 -0.02499286 0.630818 0.1487269 0.16286042 0.06920703 0.20188275 0.24829337 0.04794545 -0.21865512 0.1319866 -0.14560667 0.42239136 0.066267066 0.29384232 -0.72023654 0.13092038 0.047391072 0.47491315 0.056092802 0.26459497 0.0032852886 -0.07944407 0.23392765 0.18853562 -0.023452973 -0.41863003 0.27511278 0.073288314 0.59379536 0.08448035 0.2681869 -0.08180393 -0.10534749 -0.6337136 -0.25042504 -0.1177705 0.09738115 -0.17322582 0.48973566 -0.37017184 -0.3133255 -0.09626412 -0.33844188 0.2153697 -0.43245694 0.09241278 -0.11490324 -0.028783094 0.053081013 0.5458284 -0.18125464 0.41136312 -0.16730866 -0.022533007 0.39995098 -0.16484872 0.12025942 -0.055268377 -0.2137427 -0.06719731 -0.118031606 0.023971014 -0.41320336 -0.33411065 0.36760208 0.058873523 -0.26785335 -0.015489093 -0.0905112 0.07621242 0.18237251 -0.28345534 0.14949557 0.13045552 -0.13341938 0.15700372 -0.058815222 -0.31347364 -0.10260129 -0.13743359 0.02419044 -0.109252825 0.09923313
ganz -0.17734554 -0.23600267 -0.20488255 -0.1458613 -0.049266536 0.27600473 -0.09330736 -0.14025728 -0.017663283 -0.11905973 0.071992725 0.17046127 -0.06732875 0.20086963 -0.24777175 -0.17743692 0.08027046 0.07090443 0.0133025525 0.12822834 -0.017943664 -0.25062308 -0.025353448 0.19120479 0.07404437 0.0025958123 0.3220356 0.044668302 -0.024279313 -0.014719233 0.14991963 0.21922582 0.102213115 -0.02333258 -0.079715244 -0.13893463 0.076498814 0.12504601 -0.005721922 0.018934956 -0.14789693 0.0027576527 0.25136313 0.006700443 -0.12532486 -0.13938215 0.068967484 -0.13485263 -0.10240144 0.07878579 0.2557788 0.1218475 0.043864693 0.027192213 0.08535248 -0.2015017 -0.25254804 -0.11085819 0.22744642 -0.036997795 0.16519578 0.07685361 -0.07353714 -0.02589513 0.023707107 0.5486521 0.058922313 0.20475064 -0.13441521 0.06664799 -0.1306168 0.07512515 0.15591562 -0.08601934 0.064152956 0.11954787 -0.13675626 -0.09615846 -0.09797694 0.0741182 0.001591587 -0.15351105 -0.18192801 -0.09742944 -0.22250965 0.13470665 0.04921795 -0.06002424 -0.15077679 -0.31870452 0.04523024 0.07002134 -0.08184109 -0.07867926 -0.10782338 0.21141319 0.2761851 0.095779315 0.26585722 0.15856983 -0.016873712 0.23089929 0.01443143 0.06285824 0.028469792 -0.083337255 -0.1398873 -0.053225085 0.1282857 -0.110916436 -0.13027605 -0.23445246 -0.173402 0.21593696 -0.06585346 0.13379869 0.15994449 -0.16749907 0.42472473 0.19387572 -0.06702904 0.05335146 -0.0034055272 -0.23867108 -0.13387263 0.085851476 0.08146825 0.20633683 -0.03632578 -0.10753668 -0.14151664 -0.21594597 0.13199589 -0.050374165 0.071595624 0.28166878 0.07834592 -0.062963836 0.06308687 -0.09201354 -0.05479569 0.08757183 -0.2566208 0.13999808 -0.2672681 0.17716041 -0.10041712 0.20505467 0.08630683 -0.006523667 -0.1357122 -0.12220515 -0.05970215 0.015052915 -0.019598074 0.20996296 -0.29159418 -0.26589474 -0.008090781 -0.062814124 0.14904062 0.0033800858 0.108877406 0.25889754 -0.06191116 -0.13425438 0.011561194 -0.10358767 -0.42080402 -0.13907747 -0.18174514 0.3464649 -0.20447664 -0.0017334879 -0.11254591 0.058130246 0.20398869 -0.19964533 -0.14025666 -0.24885845 -0.17540026 0.057366535 -0.022529956 0.008848355 0.07606159 -0.17487574 0.2214493 -0.40128222 0.031041324 0.012333533 0.22761896 0.15585263 -0.15956719 -0.21029416 -0.09050724 -0.11193965 -0.17751579 -0.0075871646 -0.13992342 0.16344479
gut -0.39023605 -0.32423544 -0.23060735 -0.034100197 0.082882926 -0.031299245 0.09575739 0.035271037 -0.02933452 -0.5001226 0.17055526 0.16757618 0.16370337 -0.024328575 -0.01688032 0.44679955 0.30002084 -0.05239663 0.2553513 0.22446312 0.007055999 -0.50238866 0.13243973 -0.009207577 -0.0097581735 -0.21834373 0.06406769 -0.2712665 0.33866388 0.19674194 0.30152625 -0.21656653 0.19905369 -0.22587353 0.024461264 -0.27789485 0.18997924 0.031226344 0.017883029 -0.22194323 -0.058953263 0.14948629 -0.35606375 0.38942146 -0.18458267 -0.111321665 -0.3646804 0.19492787 0.16387865 -0.35137814 0.05951186 0.10748243 0.05567057 -0.02493346 -0.55484766 0.016442575 0.40229952 0.096133955 -0.14257447 0.004653502 0.2070272 0.57727504 0.009821758 -0.28486943 -0.018192528 -0.0700875 0.13213581 0.048138384 0.14234239 -0.2576071 -0.022207765 0.018660657 -0.16972977 0.15096876 -0.21287347 0.061309796 0.4102702 0.033069555 -0.22446677 0.31242955 0.19900006 -0.0783801 -0.33360755 0.06915276 -0.32618198 0.053882953 0.06918947 0.056414768 -0.17317857 0.23591413 -0.14702968 -0.066887826 0.018850869 -0.57656807 0.081772365 0.21273191 0.22219828 0.08169378 -0.015736144 -0.19192179 -0.06690069 0.18039392 -0.22227158 -0.019072266 0.17438994 -0.09250173 0.06286752 -0.017187908 0.060995612 -0.21443364 0.1953352 -0.20501854 0.00861878 0.52002937 -0.067383 0.4105209 0.02247518 -0.008646015 0.103439465 0.31220737 -0.16794425 0.23664096 -0.22463192 0.041765388 0.53657454 -0.20331351 -0.053991117 -0.1227538 0.32008195 0.19993837 0.30339164 -0.35459295 -0.3907189 -0.09126481 -0.14414822 0.31178084 0.13401738 -0.12367992 -0.41467616 0.13107689 0.03049458 0.17804927 0.2612562 0.009279623 -0.4669777 0.22046 -0.48658282 0.4306864 -0.31354004 -0.0082362285 -0.57398444 -0.71965975 -0.22663796 0.2220147 0.010140477 0.44112882 0.018546356 -0.06167316 0.14407103 0.12752274 0.050096545 -0.020337876 0.14854527 -0.097902365 0.12643506 -0.12206057 -0.1996976 0.044159442 0.14059098 -0.037748888 -0.04976879 -0.08657976 0.17579705 0.03894525 -0.031351052 0.118072964 0.12463415 0.01319394 0.5757502 0.09353588 0.07763275 -0.04769371 -0.29096866 -0.03459451 0.42059124 0.11709513 0.027780483 -0.2154663 0.18562604 -0.027249064 0.74087363 -0.05210086 0.35223228 0.16986996 0.057534374 0.013975578 -0.09957554 1.0070353 0.24483867 -0.05610751
sehr -0.67633027 -0.5291996 0.011537029 -0.3980655 -0.1800531 0.41606262 -0.050654493 0.080883525 0.016263222 0.14965437 0.33461332 0.07203565 0.14307655 0.32683602 -0.43822712 -0.35163653 -0.02366343 0.20158307 -0.13983572 0.2852048 -0.15470056 -0.28817478 -0.18967023 0.42271864 0.11167052 -0.1801564 0.26767963 -0.056131307 -0.4396711 -0.20145722 -0.18599808 0.25786948 0.22918898 -0.2697975 -0.44960752 0.09946261 0.17542541 0.08061479 -0.043171037 -0.03831014 -0.4747505 -0.09870588 0.28121296 -0.08029355 -0.31082845 -0.28535303 0.025246639 -0.05077435 -0.33907762 0.12944533 0.19804926 0.36991623 -0.21213499 0.039898332 0.0565767 -0.071235105 -0.6577001 -0.20289034 0.42691064 0.13697621 0.36388743 0.110358514 -0.063670926 0.052672405 -0.050206825 0.90152746 0.19914153 0.26700315 0.0018483183 -0.006168122 -0.1641446 0.21828401 0.13339816 0.22800042 0.2549724 0.12782955 0.026957586 -0.06681568 -0.32882285 0.13042901 -0.26875347 -0.16736762 -0.16915746 -0.14111681 -0.1913487 0.42004055 -0.0793322 -0.20273189 -0.04590829 -0.25875524 0.16302489 0.19199933 -0.2614042 -0.37456185 -0.15299721 -0.17736226 0.055226106 0.17121786 0.18016244 0.40524307 -0.27861306 0.38256148 -0.060593 -0.030195499 -0.003633995 -0.2818237 -0.47109377 -0.3025809 0.1992964 -0.3844864 -0.35321033 -0.38960737 -0.17943147 0.28289524 -0.19358484 0.07267489 -0.1344048 -0.16980386 0.42710704 0.15903525 -0.16043045 -0.017464312 0.03337139 -0.09181273 -0.20585091 0.25395983 0.27563685 0.35220456 0.07687156 -0.35314402 0.1194803 -0.52498686 0.37237397 0.02161437 0.08635858 0.37221324 0.2472819 -0.16688193 0.42880145 0.019598965 0.097485885 0.09592756 0.028272102 -0.07843287 -0.36445358 0.2773795 -0.113216914 0.23580179 -0.24106485 -0.21208918 -0.163859 0.11394329 0.14914422 -0.0033506225 -0.0065614036 0.37065482 -0.20309311 -0.31175226 0.11656287 -0.00018091942 0.3819319 0.24243955 0.2581498 0.30844817 0.1139766 -0.08884373 -0.023011792 -0.026980653 -0.779236 -0.26988742 -0.19921945 0.53343785 -0.5895106 0.15194921 -0.29557863 -0.16407664 0.19977005 -0.15562908 0.012096029 -0.47567952 0.1394014 -0.22134592 -0.06427782 0.055684973 -0.078137875 -0.17638384 0.2747767 -0.73383594 -0.12784797 -0.2430641 0.080845565 0.19656383 0.03152202 -0.5513715 0.19626008 -0.20911613 -0.42491582 0.023497341 -0.14128058 0.11449431
Urbason -0.3251691 -0.03740675 -0.18865769 -0.24967891 -0.042041693 0.3793249 0.09508912 -0.049295913 0.29286715 -0.3687452 -0.067245275 -0.07069009 -0.003102705 0.20233144 -0.060871568 -0.16129088 -0.15141194 0.18943441 -0.044769265 0.19546303 -0.100816794 -0.04476225 0.0674949 0.040878728 -0.16727784 -0.21182789 0.04627482 0.060593482 -0.05299144 -0.18493581 0.26171294 -0.17178018 0.21870112 0.0021366726 -0.0024710335 -0.06940703 0.013958312 0.20712721 -0.047391854 0.084738 -0.2572615 -0.1502111 0.12863351 -0.04852725 -0.24299736 -0.2307878 0.0603537 -0.16694361 -0.16315171 0.09269657 0.11939129 0.0048043584 0.15189308 -0.01636741 0.2659607 -0.42321905 0.037789866 -0.041995022 -0.22501513 -0.11903495 0.29928017 -0.020582862 -0.099795096 -0.05110927 -0.2838842 0.3761954 -0.056982365 0.38146216 -0.0171784 0.0068963026 0.015766457 0.0054201083 -0.025564337 0.07117871 0.22614436 0.003943773 -0.20777704 -0.1950009 -0.25292277 -0.039186444 0.15162957 -0.27753955 -0.25118232 0.118227676 -0.25563964 -0.14611308 0.24634989 -0.19456948 -0.017145947 -0.07016484 0.081621006 0.021608608 -0.17239274 -0.10280602 -0.19167878 0.05133135 0.25009143 0.19315098 0.100374505 0.15767942 0.13503975 0.17992356 0.04758049 0.24173419 -0.031500544 0.09738319 -0.05355054 -0.17425807 0.111999474 0.08209177 0.013761197 -0.31882036 -0.07906913 0.2532258 -0.01734954 0.24460296 0.041461654 -0.35180974 0.28217244 0.20614651 0.29662234 0.19008285 0.031586576 0.017023947 0.0035271242 0.121337295 0.09478665 0.051500786 0.053436138 -0.007841075 -0.25060868 -0.05260808 -0.010257051 -0.05949335 -0.07120278 0.26401478 0.2042727 -0.09180327 -0.014462949 -0.10424684 0.10467039 0.017117903 -0.20080698 0.21633944 -0.17509043 0.19697319 -0.048079155 0.05278616 -0.13992481 -0.122688904 -0.18268768 -0.2036011 -0.20891461 0.08266511 -0.10339769 -0.07450194 -0.124462865 -0.19927123 -0.08309048 0.03682243 -0.098714866 -0.0051505966 0.056922488 -0.035600383 0.13452604 0.0018514689 -0.13053742 -0.14489847 0.17485261 -0.010428142 -0.00387215 0.05725988 0.1092496 0.07401243 -0.01851926 0.115052715 -0.16993907 -0.14853479 0.025777329 0.13011214 -0.120369814 0.020426324 0.12804396 0.16124502 0.033605486 -0.08462716 -0.032570094 -0.14801835 -0.046687484 0.4081703 0.08283202 0.3559137 0.081738815 0.26042333 -0.1908978 -0.0582342 -0.002704403 0.15330411 0.0054122075 0.2504337
GI -0.37173295 -0.35839248 0.08061221 0.19247092 -0.078247726 0.11534638 -0.16594364 -0.07198468 0.20703834 -0.31454107 -0.22873805 0.2127208 0.035911806 0.10476585 -0.13210407 0.44522414 0.14023766 0.3668894 -0.031523313 -0.014291891 -0.29331654 0.051057093 0.121332794 -0.04733755 0.038332995 -0.3573853 -0.28147316 0.2132319 0.48483914 0.23016877 0.009483632 0.013983349 -0.011353465 0.07540579 -0.010082879 -0.4557251 0.18422626 -0.06949006 0.08313549 0.2566399 -0.19262676 0.0030662941 -0.14045908 0.33312201 -0.42307183 -0.1956098 -0.59782827 0.14102188 -0.0238424 -0.20371516 -0.091264926 0.47014064 -0.12889104 -0.333076 -0.351112 -0.23058337 0.06113659 0.1125125 -0.31402543 -0.23717082 0.2995361 0.48005173 -0.014615568 0.15795106 0.1009117 -0.09595045 -0.26866668 0.28186956 -0.11584178 -0.1963171 0.23675129 -0.1419237 0.27660197 0.011233512 -0.073185526 -0.042760793 -0.799105 0.23544183 -0.3024827 -0.107480094 0.20150834 -0.5090594 -0.15232345 0.18471633 0.11828074 0.20551832 -0.13405202 0.00068110734 -0.13255459 -0.47748682 0.12923491 -0.1193359 -0.17562224 -0.22846615 0.19762486 0.22224584 0.34618878 -0.10786757 0.20222965 -0.12912 -0.0042284355 -0.00734932 0.03325363 -0.2805063 0.2584258 0.06768574 -0.16753452 -0.17527696 0.013373819 -0.17295499 -0.019152049 0.23549189 -0.14640169 0.44577575 -0.22655506 -0.1514792 -0.4107999 -0.24740164 0.05632816 0.1707576 0.1243333 -0.0037586747 0.023456212 0.3502387 0.25558665 -0.30296126 -0.049069937 -0.28722447 0.26220685 0.0806168 0.3703521 -0.045364074 -0.056718305 0.17143694 -0.11973814 0.23707645 0.50626385 -0.42324978 -0.3362899 0.0701156 -0.2814039 0.16300021 -0.19879249 0.25617018 -0.4477853 0.5808117 -0.21882951 0.2322874 0.11120537 -0.047759786 -0.17511037 -0.7150176 -0.058060087 -0.2457154 0.20571896 0.3779985 0.04326576 0.112690166 -0.11234309 0.51884645 -0.17154749 0.19971298 0.10606794 -0.022430487 0.37160024 0.09105534 -0.07544961 0.101756185 0.3053747 0.018237261 0.34565008 0.21770117 0.35529682 0.15429494 -0.008705854 0.054576714 -0.09478938 0.11521265 0.6485122 0.013648809 0.013921427 -0.09445762 -0.061066724 -0.08438754 0.029250212 0.07002575 0.3265733 -0.20949279 0.3060751 0.13304423 0.47190803 0.02037782 0.03226569 0.12809475 -0.2785161 0.0037958177 -0.2515912 0.8186974 -0.0065100165 -0.15816833
Symptome -0.22418055 -0.13825606 -0.11348314 -0.21776548 -0.0082232095 0.24124151 -0.0061578066 -0.117006324 0.12509954 -0.21399413 0.01253888 -0.097507864 0.040184926 -0.014354272 -0.39192456 -0.1755599 -0.13440163 0.0884416 -0.3123765 0.13072202 -0.0503009 -0.15547676 -0.1552542 0.30439717 -0.05156933 -0.10495957 0.31311703 -0.0018165178 -0.29091802 0.0036853023 0.06794239 0.020872178 0.0031770996 0.06477388 -0.2895991 0.07994725 -0.030701013 0.059811857 0.17056094 -0.007107382 -0.12944439 -0.081945345 0.20321803 -0.23780107 -0.16207403 -0.083745845 -0.035814364 -0.06325731 -0.15360788 0.062180802 0.09541034 0.37505242 -0.07406404 -0.13766542 0.083294995 0.013596358 -0.41847867 -0.12615825 -0.0036252188 0.026290284 0.15339816 0.16251098 0.1876 0.097766824 -0.07978591 0.61696595 0.11955428 0.16576605 -0.05182973 0.34813535 -0.0825658 0.08817817 -0.088425525 0.17025052 0.10703866 0.031723384 -0.052149177 0.030464625 -0.17537181 0.016597236 -0.23060946 -0.19426908 -0.18791373 -0.18046252 -0.20424859 0.44934165 -0.1531152 -0.07916276 0.044369157 -0.22483395 0.2725809 0.24808952 -0.2257361 -0.34588265 -0.08596057 -0.04391508 -0.101229765 0.1858787 0.24321142 0.20047761 -0.18822652 0.1812858 0.007783199 -0.0029767028 0.15370716 -0.21361938 -0.27792153 -0.2003409 0.021363301 -0.27716127 -0.23298855 -0.3923999 -0.33399498 0.3720239 -0.1336466 -0.073743574 -0.04340975 -0.3242769 -0.018884221 0.09229895 -0.1102444 0.191465 -0.062656134 -0.055370267 -0.0145632615 0.18264736 -0.1345608 0.04607074 0.04447004 0.0005368605 0.014058708 -0.44580942 0.12520884 -0.18741561 -0.013760882 0.178745 0.08093523 -0.099656336 0.25703195 0.015035299 -0.1818548 -0.087379634 0.034001015 0.06763288 -0.23019403 0.45561126 -0.1010744 0.058153845 -0.1815858 -0.046977267 -0.007940653 -0.087067805 -0.016858213 0.07945767 -0.049131624 0.13534647 -0.0699398 -0.25581005 -0.021333044 0.08451702 0.25055525 0.08348913 0.1701646 0.1844295 0.23604181 0.039639663 0.18336402 -0.077335425 -0.5131559 -0.14271748 0.18889053 0.18460731 -0.32535 0.10145685 -0.1824216 -0.09462009 0.038194492 0.013094405 0.028762365 -0.2384292 0.10077953 -0.067647316 0.060989805 0.15380336 -0.110233374 0.034364596 0.16210389 -0.5367914 0.10519643 -0.08643134 0.12408291 0.27495006 0.08677869 -0.17637795 -0.015686704 -0.08482991 -0.2070457 0.06396476 -0.25900376 0.09595814
Hat -0.19551541 0.47473925 -0.18784882 0.27457303 0.25872698 -0.20312354 -0.3651659 -0.03788073 0.123227306 -0.052491706 -0.3131497 0.2008046 -0.41293046 0.012513292 -0.26836413 0.448433 -0.024196949 0.07847448 -0.12449791 0.5128004 -0.38593644 -0.17140178 0.008815503 -0.21190587 -0.24555673 0.07349111 -0.30911413 0.26840967 0.34820056 -0.014755636 -0.15995577 0.36892915 -0.23941857 -0.31303814 0.08740463 -0.14002167 0.45147353 -0.38461784 0.48146328 0.07815449 -0.04354304 0.08380961 0.45340726 -0.021222403 -0.104377165 -0.38699174 -0.25619677 -0.32232836 0.25184923 0.08902011 0.06439411 0.124627575 0.07170135 0.31042057 -0.743171 -0.25265536 0.21202344 -0.21286346 0.084363945 -0.33989915 0.22893307 -0.10495818 -0.2362584 0.16608049 -0.37148103 0.2790282 -0.02790588 0.34450117 -0.22869359 0.29746565 -0.060764037 0.20268475 -0.5009799 0.06746841 0.11316 0.16943733 -0.15609698 -0.071659125 -0.1840754 0.37473816 -0.20506914 0.040082347 0.18545954 -0.1673751 -0.24905738 0.105444774 0.16531062 -0.15767922 -0.010802574 -0.5546986 -0.14438246 0.087137245 -0.16176657 0.19197777 0.013570256 -0.29319686 -0.24809526 0.07949802 0.1697402 0.0050673285 -0.12446711 0.6965718 0.0854043 0.27136192 -0.14792094 0.16169244 -0.15249856 0.02138494 0.07705302 -0.29302213 0.08992906 -0.6894225 -0.30100918 -0.0004410754 -0.13958703 -0.03612823 0.28693625 -0.4853591 0.15338708 -0.27869898 0.06937527 0.08680818 0.19766729 0.10274738 -0.09301044 0.4007486 0.020173816 -0.004534731 -0.06190115 -0.14088705 -0.15200596 -0.36385402 0.46226382 -0.16273542 0.37716797 -0.084836595 -0.0241932 -0.25850457 -0.13224603 -0.012240088 0.17275852 -0.29543054 -0.5350061 0.26393506 -0.47074044 0.5002617 -0.22572507 -0.09213623 0.37439826 0.15255122 -0.44398582 -0.32894528 -0.14806204 -0.05514991 0.02635369 0.42606428 -0.08762146 0.17136748 0.22998539 -0.15211394 0.56960994 -0.22838384 0.09612106 0.6030314 -0.33438674 0.22823584 0.2873859 -0.24938755 0.094351076 0.054812644 0.08882037 0.3776588 -0.0017105986 -0.32595626 -0.106984235 0.37875012 -0.27778426 0.24668644 -0.23619814 -0.20930934 0.10793402 0.024243252 0.16241622 -0.31217158 0.47157818 -0.0748436 0.50748825 -0.5832052 0.5797687 0.10427959 0.373802 -0.1550441 -0.46299165 0.305926 0.030839624 -0.16454451 -0.32303235 -0.47833115 0.018339701 -0.08648882
Gewicht -0.7415149 -0.5826147 -0.12604646 -0.5721717 -0.16319549 0.48483536 -0.116111346 0.1980315 0.07520387 -0.014658368 0.08715903 0.17155069 0.033506148 0.14467575 -0.28676265 -0.3308785 0.16043581 -0.06496475 -0.1382759 0.48099968 -0.18697852 -0.27937266 -0.15504524 0.43644887 0.026603509 -0.17121361 0.19853604 0.14650263 -0.3192707 -0.27234536 0.09211901 0.3539965 0.2211644 -0.19018282 -0.3426548 -0.010131087 -5.040133e-05 0.10820827 -0.08120622 -0.06604305 -0.56398326 -0.0022765999 0.37632734 -0.11392288 -0.1489288 -0.3068198 0.05877721 -0.0018110081 -0.3616592 0.177843 0.10888614 0.39930502 -0.18898551 -0.058718532 0.05190564 -0.106717445 -0.5052266 -0.15642032 0.27401152 0.05374561 0.30657405 0.16291209 -0.09493261 0.01150596 -0.034461867 0.87042147 0.11235024 0.17431735 0.007209902 0.11140443 -0.122503124 0.09858266 0.25252673 0.1666084 0.16935034 0.20938955 -0.17411777 0.031608153 -0.37728685 0.30920246 -0.210538 0.011503318 -0.07701997 -0.0040776357 -0.26560694 0.48862228 0.03225722 -0.22810043 0.011073255 -0.32389626 0.22718802 0.11389264 -0.18430711 -0.28199217 -0.12661026 -0.107389316 0.11629098 0.08717368 0.17768072 0.39697966 -0.3723583 0.33994564 0.044992574 0.0060313432 -0.068832695 -0.28013846 -0.33477113 -0.21810009 0.219278 -0.35456532 -0.2890961 -0.41275313 -0.20741266 0.22827466 -0.18014564 0.08559405 -0.013735668 -0.22817957 0.5865849 0.04311698 -0.16504842 -0.048282787 0.13553311 -0.11178933 -0.27136084 0.19943331 0.16704255 0.23783171 0.1851689 -0.27808508 0.0048026484 -0.60279006 0.23011416 0.02452536 0.021942666 0.48446319 0.30775145 -0.35233703 0.39658183 -0.02796097 0.0444841 0.09657929 0.01338867 0.09131997 -0.39530894 0.3128636 -0.17171356 0.20925921 -0.3300809 -0.10668018 -0.15630133 0.08165664 0.11641575 0.041258335 -0.12022739 0.4176576 -0.18464367 -0.26880383 0.07155964 0.15328754 0.20710549 0.16823398 0.1514805 0.36729607 0.0973718 -0.2668255 0.0006512712 -0.08371064 -0.69509614 -0.442953 -0.18392433 0.5494365 -0.60448736 0.12832072 -0.31846943 -0.12070732 0.20695816 -0.15317972 0.011596977 -0.4080596 0.12759347 -0.13610241 -0.045409266 0.008042034 -0.13277954 -0.18567586 0.28072786 -0.7815011 0.019129375 -0.192143 0.24323168 0.2019386 0.18731867 -0.57557225 -0.0018301468 -0.2732115 -0.35059035 0.032249156 -0.10414477 0.07518148
aber -0.7570636 -0.9362607 -0.10507341 -0.6580379 -0.35094547 0.31941622 -0.06684302 0.15593661 0.04638551 0.09921038 0.2893716 0.09523234 -0.20678197 0.18378708 -0.571541 -0.4933009 -0.07029911 0.048392467 -0.15448575 0.5611792 -0.11301196 -0.33075324 -0.32014444 0.45118973 0.28427178 -0.37495458 0.5943986 -0.040343676 -0.5566426 -0.3434321 -0.13339563 0.3279159 0.25275424 -0.1832758 -0.6085676 0.058333915 0.2448785 0.17935348 -0.31710243 -0.050383165 -0.65340674 0.18729848 0.23559181 -0.1036423 -0.23350677 -0.21189106 0.13817677 0.011383535 -0.46173233 0.27746812 -0.0076223267 0.50091416 -0.060494542 0.15475875 0.10751625 -0.0011899656 -0.84090215 -0.100457825 0.43934286 0.0018755313 0.56829053 0.24412023 0.0075272224 0.033085812 -0.009124711 1.1466174 0.19970961 0.24096778 -0.19471335 0.17561395 -0.3660461 0.32458147 0.10895777 0.25191325 0.19011784 -0.0015615626 -0.19331692 -0.15439601 -0.45640355 0.18243806 -0.17953368 -0.1980885 -0.35452595 -0.18151338 -0.47968853 0.49530518 -0.059016213 -0.26471376 0.041656215 -0.19994164 0.33344615 -0.0033729118 -0.40894577 -0.43103364 -0.081791766 -0.06757875 0.13336363 0.19439922 0.29048356 0.5744254 -0.30947015 0.3213781 0.24631867 0.02304581 0.028599992 -0.5049888 -0.27390966 -0.12184492 0.25426483 -0.39794263 -0.41681293 -0.34938797 -0.30172688 0.4440296 -0.18634132 -0.024773112 -0.042038683 -0.34955657 0.5664169 0.40588892 -0.22363146 -0.14872698 -0.07056381 -0.16771139 -0.34346136 0.2908019 0.27929634 0.31458935 0.28219196 -0.32824695 0.08481826 -0.80889326 0.36102632 0.030012218 -0.068078056 0.56232256 0.32227182 -0.22356391 0.6467525 -0.012417093 0.17824654 0.113291465 0.24055804 0.08518716 -0.5325357 0.32578024 -0.22444506 0.3576187 -0.24920724 -0.12235795 -0.190571 0.14546469 0.25794488 -0.026761442 -0.0055046403 0.5114254 -0.13038062 -0.3963725 0.091948606 0.017348023 0.36921412 0.18786697 0.2255751 0.32466236 0.15023223 -0.063072205 -0.14348602 -0.11214262 -0.88440055 -0.3367418 -0.16166466 0.50400746 -0.68758905 0.3907792 -0.58983564 -0.1533845 0.34028086 -0.30752283 -0.029447386 -0.7629477 0.06748756 -0.27319652 0.011218763 -0.020322628 -0.25474074 -0.32766446 0.49467576 -0.92847216 -0.18875591 -0.44369274 0.12300388 0.36274981 0.1486039 -0.6046291 0.13245226 -0.23391028 -0.57583565 0.050124798 -0.162159 0.25725034
Bei -0.4856145 -0.11102563 -0.17246762 -0.28174913 0.10116107 0.009036065 -0.45669976 -0.33844987 -0.059819568 0.30828723 0.50416785 0.1851392 0.07662102 0.2742502 -0.21310274 -0.08223001 0.21145326 0.25133103 0.0858542 0.63294715 -0.32670823 -0.08721179 0.020058125 0.41578442 0.11561836 -0.35102016 0.12392957 -0.21088675 -0.26077455 0.23432612 -0.1126612 0.08754726 0.25560528 -0.08073024 -0.43082514 0.041308116 0.4409138 0.1490862 0.33488113 0.020305714 -0.6822173 0.15747498 0.58363754 -0.2274806 -0.39701825 -0.5764511 0.21883827 -0.21084137 -0.28532153 0.47727603 -0.13827205 0.32700258 0.2318095 0.089856155 -0.22662775 0.014205875 -0.52860063 -0.2905899 0.38144663 -0.14182141 0.27140057 0.25876004 -0.10190478 -0.20247102 0.008971976 1.0065027 0.32555655 0.091450445 0.06358129 0.3936517 -0.1300817 -0.02873635 -0.21408992 0.22274184 0.6084595 -0.17418312 0.51543957 -0.049405906 -0.18708013 -0.19513948 -0.11596765 -0.17996152 -0.14096618 0.06731885 -0.31526047 0.33593062 -0.047124036 -0.26309267 0.16334167 0.10127755 0.27593657 0.05146264 -0.397768 -0.2807517 -0.012302537 -0.33570838 -0.23430043 -0.02155037 0.24749486 0.27261955 -0.0772644 0.5957319 0.081227176 -0.089241035 -0.05519602 -0.34480524 -0.421204 0.0060748504 0.32758832 -0.22964622 -0.5158615 -0.5531738 -0.25804743 0.48861396 -0.0933452 0.007910696 -0.170908 -0.05797928 0.20026186 0.14144218 -0.20011084 0.07531831 0.0031802792 -0.13011104 -0.069998875 0.1857513 0.02741617 0.13820519 0.37872216 -0.3208959 0.11027958 -0.77404416 0.806434 0.14591691 -0.28412184 0.30046022 0.57686836 -0.036755476 0.13057159 0.34354338 0.28101578 0.14299738 0.032217138 0.3673673 -0.5212335 0.45576143 -0.20146835 0.32685897 -0.23449403 -0.18909937 -0.1092477 0.34333006 -0.031784456 -0.08435334 0.12004057 0.08680734 -0.29018337 -0.3245309 -0.12034437 0.22749342 -0.0818793 0.28537354 0.54286504 0.2634398 0.2458701 0.11164392 -0.16679442 -0.13678719 -0.68733674 -0.1307344 -0.37045938 0.25693572 -0.34272557 0.13535285 -0.37388837 0.040501203 0.020036012 0.020706372 -0.07359205 -0.4793835 -0.06796423 -0.4769434 0.015087697 -0.13810365 -0.07301406 0.009132731 0.34712434 -1.0169667 -0.20810495 -0.2309029 0.29341108 -0.03605322 -0.25230598 -0.6647512 -0.1041257 -0.00114666 -0.65053624 0.02630641 -0.061968498 -0.06799251
Dilatation -0.42278102 -0.14753427 -0.49446177 -0.26023582 -0.11030295 0.260511 0.2310157 0.27230138 0.36198416 -0.10243154 0.11565234 0.27975705 -0.104433276 0.03778549 -0.06338235 0.2881815 0.28081888 0.10945753 -0.08653297 -0.077980615 -0.30264053 -0.44302842 -0.38332883 -0.30606762 -0.011912426 -0.1389662 0.25436556 0.10496101 -0.113863446 -0.010556654 0.20619713 0.3174836 0.10818844 0.020290358 -0.008269009 -0.47528228 0.2824885 0.017960371 0.49748778 -0.4856432 0.36471918 0.22992428 0.35768804 0.06236134 -0.20800973 0.08619184 0.13830185 -0.3636944 -0.43144223 0.048659645 0.070193864 -0.5527008 -0.16571423 -0.29575777 -0.013208646 -0.46741942 -0.4627794 0.020204928 0.35582638 0.4191531 0.3986353 -0.16148719 0.31832963 0.043848895 -0.0049407477 0.22068614 -0.07264845 0.18222745 -0.1325975 -0.21226351 0.04784874 -0.11417852 0.18314897 -0.10660065 -0.59194446 -0.15401962 -0.05841524 -0.2511106 -0.4820151 0.5122031 -0.09357722 -0.68612874 -0.04608173 -0.20004763 -0.048669223 -0.08982219 -0.106565565 0.28807336 0.24434988 0.029607166 0.06607887 0.046557795 -0.39217317 0.03441099 -0.24130246 -0.09715766 0.35047302 0.2427038 0.36148113 0.21299246 0.22785561 0.4689621 -0.18682782 -0.11636959 -0.15592986 0.18779415 0.33649927 -0.2990615 -0.09865438 -0.011764022 0.34511518 -0.65530616 -0.4480572 -0.13490957 -0.15263253 0.12431535 0.05782298 -0.33008766 0.51159745 -0.33480483 0.16503532 0.58819693 -0.05132885 0.11744621 -0.07265712 0.4171576 -0.03110436 0.09835266 0.14098108 -0.008832621 -0.39588207 -0.23706214 0.20940529 -0.2437699 0.12516765 0.4516388 0.07006442 -0.04114081 -0.20092854 -0.42715743 -0.04177828 0.15574309 -0.25943497 -0.062453255 -0.25714013 0.28419435 0.1351736 0.03685698 -0.36379835 -0.13398474 -0.19036311 -0.3234335 -0.43590853 -0.5017793 0.23752274 0.036177218 -0.8033227 -0.18636812 0.010985471 0.16080876 0.18579823 -0.11835407 0.14855699 0.3852362 0.049573857 0.048840232 0.43027863 -0.38664094 0.14534333 -0.12489977 -0.12291716 0.1236677 -0.011295033 0.2083222 0.10534595 -0.36737522 -0.35745686 -0.51608837 0.38367411 -0.06957267 -0.03131428 0.39286435 -0.037437312 0.5192202 0.017216837 -0.11538438 0.30441013 -0.041322514 0.5492168 0.18332309 0.28874213 0.53661966 -0.21570316 -0.07555043 0.11398385 -0.44005328 -0.2537104 0.0865462 -0.024030589 -0.004974936
des -0.46932602 -0.17212027 0.06334631 0.27477264 -0.58697265 0.39206487 -0.53372276 0.2709459 0.30678985 -0.105394386 0.16063657 0.11218895 -0.35507062 0.24501139 0.011171808 -0.40567887 -0.26759145 0.2919841 -0.44904462 -0.17415977 0.11442759 -0.41759083 0.108051844 -0.097485855 0.15033756 -0.4565503 0.19771323 -0.0699048 0.2943696 0.030946365 -0.4450684 0.45221198 0.39790475 -0.1890534 -0.1592462 0.37872264 0.05489347 0.20133434 0.2866357 -0.22829492 -0.36770818 0.20204103 0.55482954 -0.49390942 -0.5857819 -0.1686357 -0.6204004 0.6147451 -0.2384727 0.0073318933 0.1768064 -0.12195319 -0.35237297 0.12831104 0.106801264 -0.65541005 -0.29302874 -0.29297388 -0.038331274 -0.23784623 -0.13189012 0.5183863 0.0211514 0.030722646 -0.1109973 0.67865604 0.064294636 -0.27492002 -0.10831185 0.0073512364 -0.60253394 0.38455176 -0.17610961 0.75845414 0.34328204 -0.04484105 0.0842572 -0.0811579 -0.7709086 -0.021098595 -0.6250584 0.11913115 -0.18303269 -0.09385977 0.26628458 0.04426278 0.28415796 -0.31954432 -0.26745814 0.12498186 0.3134495 0.020956218 0.40833008 -0.37796593 -0.24723339 0.07268202 0.011345408 0.27775177 0.42477047 0.048696738 -0.44249734 0.10581283 0.18586136 0.2353701 -0.35250327 0.14048223 -0.32418326 -0.559967 0.29636478 -0.28501543 -0.39864364 -0.5002775 0.13624527 0.5025402 0.055011634 0.29905793 -0.25245476 -0.78496933 0.3879565 0.027353894 0.2304269 -0.16211379 -0.35028222 -0.46435308 -0.21397863 0.20985939 0.10066399 0.5908963 -0.24614927 0.0522082 -0.24656397 -0.7815255 0.44293106 -0.21501699 0.06425501 0.31233335 0.13734335 -0.75375915 0.69767654 -0.19023705 0.23117279 0.42966875 0.055562403 -0.52970123 -0.39793378 0.68634397 -0.010666994 0.19674985 -0.12075565 -0.113716066 0.53482044 0.6464097 -0.06512333 -0.26524094 -0.2828166 -0.041335214 0.23205553 0.06375766 0.27635697 0.14673488 0.23189561 0.42327705 -0.24670045 0.5792683 -0.13676433 -0.37321746 0.20480524 -0.07872629 -0.16094425 -0.16912127 0.090480454 0.39741698 -0.16409731 -0.26276022 0.19167231 -0.055463694 -0.14881903 -0.04470703 -0.2254183 -0.68993706 0.11552805 0.045177337 -0.29897192 -0.19052583 -0.031185165 0.1602825 0.3337118 -0.23686792 -0.36514962 -0.6223142 0.70702267 0.51222515 0.2135658 -0.8150565 0.3684193 -0.033092707 -0.13204269 0.42165738 -0.28972208 0.54148424
stabil -0.1666788 -0.05904516 -0.106858306 -0.0674885 0.007408549 0.15092818 -0.08490294 0.059288915 -0.06749646 -0.16498202 0.05654644 0.09482162 0.032974504 0.13399176 0.007310924 0.024361543 -0.0518006 -0.024524288 -0.084255554 0.111209735 -0.079515435 -0.07615316 -0.11453578 0.07948732 0.091459095 -0.0045082057 0.105294734 -0.03007053 0.07102863 -0.13293605 -0.007973809 -0.051627886 0.15448147 0.022801153 -0.015009544 0.026781058 0.12786202 0.13870107 -0.003949957 -0.08834258 -0.06109625 -0.003218234 0.08268142 0.017143866 -0.12987262 -0.15195797 0.11988973 -0.0028714542 -0.04509894 0.048467997 -0.03967794 0.13951983 -0.0013273503 0.025836272 0.1057084 0.03188903 -0.03396717 -0.23276655 0.04697431 0.1551257 0.02472209 0.030854546 0.058890216 -0.08676273 -0.06573209 0.19439471 -0.07459295 0.07466779 -0.030649679 -0.13595572 0.047664493 0.033540003 0.10034305 0.11793103 0.11699407 -0.0012529412 0.026132632 -0.10295808 -0.028891042 0.1593937 -0.048066624 -0.0040984266 -0.289059 0.031426862 -0.17169854 0.09489661 0.11971533 0.08766773 -0.052435745 -0.10856747 -0.047373746 0.13633049 -0.17291887 -0.23390204 -0.11123046 -0.020206084 0.13608742 0.0310445 0.11974237 0.07174277 -0.06256281 0.064610854 -0.14568064 0.023727229 0.10007292 0.12451983 -0.06286072 -0.080758184 0.122169405 -0.09107709 0.035452306 -0.21240117 -0.115433514 0.052507684 -0.07660563 0.18283561 -0.021050852 -0.13664995 0.14576276 -0.050861444 -0.030740634 0.03950985 0.071178146 -0.07819635 0.07852044 0.25404555 -0.006276941 -0.06944147 -0.049453214 -0.18934199 -0.0651573 0.013333906 -0.00023893737 0.0351813 -0.15378179 0.0796799 0.08145123 -0.26683754 0.047639582 -0.030730566 0.06379245 -0.00089026813 -0.085092455 0.009221136 -0.18116893 0.14629738 -0.051285174 0.1881939 -0.09997035 -0.011630781 -0.13731319 -0.13195044 -0.11050248 0.075124964 -0.1033354 0.23730302 -0.17588739 -0.18939514 -0.033014845 0.010242938 0.07003473 0.04911822 0.029196817 0.17054774 0.09517521 -0.093886785 -0.0021473086 -0.007649635 -0.07249726 -0.14334743 -0.14066815 0.11789222 -0.093583204 0.031392645 -0.20659086 0.0062939264 -0.044215247 -0.06301993 0.03911432 0.044186212 0.11084612 -0.05495728 -0.0025206958 0.035828274 0.06857304 -0.104482986 0.23722187 -0.25369328 -0.030208651 0.121922776 0.23611236 0.07513969 0.17244206 -0.19345511 -0.06413737 -0.0045843367 -0.016185703 0.1354046 -0.011575875 0.016313896
hoch -0.6258079 -0.7205266 -0.018128155 -0.4507216 -0.18794006 0.29135156 -0.028641056 0.11649866 0.13392292 -0.07174095 0.104489475 0.04735846 -0.014031212 0.28377882 -0.41730428 -0.312799 -0.00236813 -0.045660663 -0.21250507 0.2953017 -0.08390946 -0.18900137 -0.17148894 0.3920216 0.100064516 -0.2918444 0.34417978 0.08711924 -0.35558444 -0.13182563 -0.06886467 0.20397761 0.23560582 -0.19186914 -0.506144 0.005977291 0.18185084 0.15451184 -0.12708955 0.0124990605 -0.29297104 0.0736067 0.20405884 0.025332589 -0.22745615 -0.27906314 -0.0095054675 -0.006145889 -0.24945958 0.13097008 -0.0039019492 0.2556416 -0.08798663 0.019363634 0.13688104 -0.15536137 -0.61192083 -0.15775579 0.28335747 -0.048759673 0.2888739 0.1705138 -0.20201239 -0.11733916 0.03395963 0.82561404 0.14542796 0.22025026 -0.10864717 0.12974556 -0.17899317 0.16748643 0.15938099 0.00458172 0.26797342 0.022126434 -0.09479608 -0.1108705 -0.21799043 0.07558828 -0.10305841 -0.266864 -0.22691418 -0.12628052 -0.28425553 0.3690663 -0.039859705 -0.10853029 -0.044773385 -0.17491366 0.2527468 0.11853538 -0.23162054 -0.24993332 -0.13304844 -0.12379261 0.2617814 0.07039044 0.16096167 0.17353114 -0.24519378 0.36228627 -0.07178929 -0.0201043 0.01105009 -0.20592298 -0.34446564 -0.17608915 0.08879837 -0.36052495 -0.38055578 -0.32017326 -0.21859366 0.3951657 -0.18093102 0.16448061 -0.09633885 -0.25786483 0.4529461 0.12224989 -0.21665962 -0.07859096 0.04891038 -0.09142266 -0.14430165 0.2463528 0.09330088 0.112680964 0.14425457 -0.18740751 -0.042726513 -0.5483108 0.2204473 -0.063739724 -0.09100405 0.3712896 0.25488904 -0.28531748 0.3129846 0.044902682 0.009238342 0.11710339 0.11264059 0.08503491 -0.26517075 0.16344483 -0.02595286 0.2730346 -0.15058233 0.043863226 -0.09718373 0.030140009 0.077761516 0.051236942 -0.119888216 0.38450778 -0.2481846 -0.26512027 0.07932068 0.111310035 0.20608097 0.18556121 0.28111857 0.2761667 0.14129843 -0.15606606 0.018573103 -0.058114495 -0.619494 -0.25477374 -0.23506956 0.40109244 -0.37663645 0.23412241 -0.27623293 -0.11458459 0.18297513 -0.23791347 -0.008469883 -0.32714316 0.082343645 -0.21236703 -0.018119248 0.09917628 -0.045089114 -0.1723195 0.29699588 -0.59650797 -0.08779919 -0.054798897 0.23074897 0.14437267 0.036323834 -0.37474385 0.046433695 -0.16202913 -0.40514728 -0.053446133 -0.08977828 0.20493256
zu -0.36498854 -0.6769486 -0.048830498 -0.4525459 -0.12434644 0.62811935 -0.09981234 0.2360959 -0.03665038 0.13131033 0.56948507 0.07618045 -0.42200437 0.10424238 -0.5788216 -0.6821755 -0.44220996 0.27163315 -0.096119076 0.45875475 0.23345654 -0.27191207 -0.24098271 0.40492195 -0.14952414 -0.15333107 0.69112307 0.07326939 -0.76220226 -0.42191577 0.07519178 0.43631494 0.6339236 -0.27296668 -0.73659104 -0.02784798 0.48638552 0.7825097 -0.019551272 -0.32791266 -0.7199977 0.0057268413 0.4535634 0.1116245 0.021599472 -0.25724247 -0.021659203 0.04359445 -0.6657592 0.06962212 0.2183776 0.4091807 -0.28992215 0.058057807 0.32932693 -0.07729737 -1.1166826 0.019644877 0.4486059 0.3468153 0.46712318 0.46581692 0.29060754 0.076402254 0.20206068 0.95699435 0.45783707 0.16872574 -0.21268167 0.15591517 -0.47165388 -0.13523403 0.19785675 0.0877501 -0.11502243 0.42779744 -0.09201072 -0.13774964 -0.8296071 0.11215689 -0.5684447 -0.05901737 -0.09092113 0.049906146 -0.201657 0.18233694 -0.16479684 -0.43018413 -0.051535815 -0.32192233 0.41236082 0.27229646 -0.20067722 -0.53147733 -0.17151088 -0.41210166 -0.19310795 0.0402868 0.08933811 0.5884424 -0.45603004 0.5300804 -0.010312307 0.0028505474 0.20074578 -0.16716813 -0.8068242 -0.28121054 0.26407006 -0.5762809 -0.6628363 -0.77144176 -0.27675477 0.28924283 -0.09415871 0.10871073 0.1928784 -0.24593344 0.12360768 0.44638613 -0.0815395 -0.21312152 -0.29337654 0.16599324 -0.15909001 0.37061456 0.15741238 0.28697905 0.4360063 -0.48293516 0.026026398 -0.9478613 0.21719763 -0.16890475 -0.27194056 0.51021165 0.36840796 -0.40413517 0.8513099 -0.38933343 -0.093065955 0.26871356 0.3448029 -0.11164892 -0.35797837 0.28332967 -0.042388566 0.269682 -0.50877947 -0.40856746 -0.2611989 0.23999083 -0.20723653 -0.23830543 0.030005613 0.44135052 0.28543502 -0.29117477 0.15650657 0.0677196 0.46531662 0.16123287 0.44673282 0.28642556 0.33378074 -0.09488017 0.14107041 -0.10980469 -1.2129922 -0.5347255 -0.31814092 0.6549083 -0.4655818 0.07480742 -0.4274247 -0.37826747 0.34306479 -0.11230551 0.04904399 -0.61652535 0.2944629 -0.47389504 -0.21519189 0.11228302 -0.13519119 -0.11053044 0.23239708 -1.1407316 -0.23232977 -0.12274536 0.042730022 0.6153167 -0.0034477764 -0.2500537 0.1895008 -0.40208167 -0.6580728 0.07198168 -0.26394185 0.015871888
besser -0.22738732 -0.28406608 -0.14032145 -0.17504784 -0.025834935 0.1832708 -0.08054679 0.0353171 0.015525157 -0.057489127 0.09177357 0.031341746 -0.026239855 0.16927703 -0.20146969 -0.15865757 0.056006603 -0.032141063 -0.06046882 0.18656915 -0.08198195 -0.027029587 -0.049000856 0.28139636 0.08676469 -0.1537169 0.12115688 -0.01631797 -0.10941109 -0.054350648 -0.1062136 0.119369246 0.12641661 -0.08904224 -0.30120298 0.0110022025 0.05962195 0.1261229 -0.008187902 0.0520569 -0.27294978 -0.047427453 0.19476949 0.07180189 -0.18012261 -0.13197295 0.040852442 0.08909661 -0.19771442 0.089672506 0.06536537 0.17104135 -0.10357899 0.19081971 0.062326882 -0.027734982 -0.26212174 -0.13187115 0.12517864 0.13176194 0.06692587 -0.011402766 0.034678377 0.00856673 -0.005690179 0.4611121 0.059297662 -0.020289022 0.049718946 0.14580703 -0.15639324 0.08693434 0.109462604 0.100577295 0.14752425 0.011471126 -0.016587786 -0.016287271 -0.19907701 0.10628195 -0.057974633 0.012845817 -0.106799684 -0.10206145 -0.20854306 0.24715045 0.057749804 0.07314901 0.0038373503 -0.13262142 0.14339076 0.14873675 -0.2863489 -0.16123064 -0.13004328 0.07352646 -0.143638 0.06990705 0.23240872 0.23827384 -0.17662878 0.2709706 0.14353436 0.039197225 0.05802548 -0.17297326 -0.16252759 -0.1116755 0.088888906 -0.21445033 -0.18259574 -0.29940245 -0.16790129 0.18737578 -0.3000553 -0.010135492 -0.034074 -0.23385316 0.21882692 0.064790316 -0.19925931 -0.06451671 -0.009192298 -0.0749261 0.00932254 0.15347157 0.08993388 0.009465534 0.041663256 -0.10714076 0.0321703 -0.19458935 0.08227394 -0.07604837 -0.11718989 0.22795075 0.02681694 -0.17523403 0.23052663 -0.012174214 -0.09425568 0.10999607 0.03369199 0.053338118 -0.065484494 0.2347278 -0.27375528 0.22311656 -0.081984185 0.08152619 -0.036211677 -0.021364 -0.07273802 0.071441785 0.06087879 0.2545372 -0.03441103 -0.17339942 -0.03963701 0.030861832 0.106001824 0.033444677 0.019173548 0.1107786 0.101619914 -0.08683601 0.070535846 0.03380243 -0.33510685 -0.26333383 -0.050251417 0.29116553 -0.1580499 0.035371542 -0.26020467 -0.036321294 -0.016554793 -0.09881995 0.18099687 -0.122232005 0.047124796 0.00075810455 -0.07664735 0.086836435 0.063717484 -0.10624904 0.22977291 -0.4345171 0.032777034 -0.010534119 0.22671025 -0.061968803 0.08141191 -0.11869405 0.032617524 -0.055279113 -0.13120079 0.056383323 -0.01798007 0.066419326
Fragmin -0.3183201 -0.23569325 0.59480447 -0.35663652 -0.37514064 0.60434693 0.18982917 0.20749106 0.56071997 -0.6878603 -0.096586585 0.23650567 0.21024165 0.115609206 0.3957999 0.083261505 -0.36299813 -0.2572286 -0.15259093 -0.3474226 -0.16449066 -0.11158514 0.32488263 -0.445572 -0.73808 -0.34710282 0.45615447 -0.3321328 -0.35104328 -0.30784667 0.14951922 -0.15510647 0.07164998 -0.34944794 0.19628157 -0.14078721 0.02955344 0.2876548 0.20085245 -0.012271471 -0.017224682 -0.334342 0.56801915 0.14728492 0.27394518 -0.3481479 0.5077353 0.21492699 0.059151467 -0.07735245 0.27512446 0.7197689 -0.3700078 -0.52692926 -0.4140518 -0.1751462 -0.5902589 0.15642022 -0.40417105 0.1457909 0.3948127 0.10660799 -0.58317244 0.40725446 -0.13271695 0.616028 -0.25581852 0.13679537 0.50753623 0.23350471 0.17170824 0.18527704 0.009341333 -0.12809351 -0.012845731 -0.9566389 -0.9586015 -0.36877486 -0.06875009 0.085350886 -0.31721294 -0.1927451 -0.120824486 -0.5882904 -0.60644996 -0.12090143 0.45963863 -0.6269936 0.37017024 -0.30752373 0.11115656 0.72195953 -0.097668976 -0.4088924 -0.22551057 0.4713565 -0.09418974 0.2353225 -0.0016812556 0.59953994 0.26561236 0.37428704 0.3720528 0.28620374 -0.16797414 0.2926102 -0.392638 -0.29855415 -0.28883716 -0.17085816 0.09345577 0.055875354 0.004597455 0.65356606 0.03561273 0.16889982 -0.51052517 -0.45840997 0.25489974 0.23153324 0.032041453 0.51425755 0.052668143 0.03847038 0.06045509 0.31171075 0.53605545 0.17138833 0.20175666 -0.33623537 -0.7430671 -0.14771847 0.13004322 0.22062021 0.6000152 0.22490518 0.17724794 -0.18633206 0.3291763 0.5173377 0.21731381 0.2138909 0.06274195 0.22802046 -0.17742044 -0.1599351 0.019175963 -0.07324074 -0.29312503 0.23532379 -0.56700385 -0.47570288 -0.4201528 -0.059951745 -0.5432276 0.22057448 -0.4588482 -0.03285734 0.27182758 0.4131228 -1.1066179 -0.21478508 0.37767455 0.42261282 0.341981 -0.25806913 -0.13266559 -0.19656473 0.18570526 -0.32697934 0.1611808 0.24940595 0.12669495 -0.16104715 -0.10207754 0.64893633 0.05272156 -0.4181389 -0.41037512 -0.032092284 -0.22744067 0.004649184 -0.55795574 0.3700877 -0.5293616 -0.30570596 0.043686546 -0.35407674 -0.12429241 0.5838954 0.03837134 -0.27239096 -0.48591337 -0.14773628 0.11597507 0.012299085 0.34212613 -0.16961744 0.19590083 0.2744951
